{"learner":{"attributes":{"scikit_learn":"{\"_estimator_type\": \"classifier\"}"},"feature_names":["incomeSourceAllTime","allTimeMonthlyIncome","odAll","averageMonthlyBalanceAll","incomeHistoryAllTime","loanPmtAllTime","loanIdentifiedAllTime","cashflowAllTime","inflowExcludingLoans","recurringMonthlyIncome","activeMonthlyIncome","income_count1_Deposit","income_count1_Payroll","income_count1_Transfer","income_count1_gig","total_type_monthly1_Deposit","total_type_monthly1_Payroll","total_type_monthly1_Transfer","total_type_monthly1_gig","total_monthly1","num_of_originations","num_of_pays","active_count_0","active_count_1","active_count_2","active_count_3","active_monthly_0","active_monthly_1","active_monthly_2","active_monthly_3","recurring_count_1","recurring_count_2","recurring_count_3","recurring_monthly_1","recurring_monthly_2","recurring_monthly_3","transation_period_lengths","max_balance_differences","net_cashflow_from_start_to_end","n_peak_500","good_days_to_debit_by_peak_500","peak_trans_history_ratio_500","peak_good_days_to_debit_trans_history_ratio500","max_peak_prominence_500","min_peak_prominence_500","avg_peak_prominence_500","max_peak_gtd_500","min_peak_gtd_500","avg_peak_gtd_500","peak_most_recent_gtd_length_500","n_peak_250","good_days_to_debit_by_peak_250","peak_trans_history_ratio_250","peak_good_days_to_debit_trans_history_ratio250","min_peak_prominence_250","max_peak_gtd_250","min_peak_gtd_250","avg_peak_gtd_250","peak_most_recent_gtd_length_250","n_peak_100","good_days_to_debit_by_peak_100","peak_trans_history_ratio_100","peak_good_days_to_debit_trans_history_ratio100","min_peak_prominence_100","max_peak_gtd_100","min_peak_gtd_100","avg_peak_gtd_100","peak_most_recent_gtd_length_100","n_valley_500","good_days_to_debit_by_valley_500","valley_trans_history_ratio_500","valley_good_days_to_debit_trans_history_ratio500","min_valley_prominence_500","avg_valley_prominence_500","max_valley_gtd_500","min_valley_gtd_500","avg_valley_gtd_500","valley_most_recent_gtd_length_500","n_valley_250","good_days_to_debit_by_valley_250","valley_trans_history_ratio_250","valley_good_days_to_debit_trans_history_ratio250","min_valley_prominence_250","avg_valley_prominence_250","max_valley_gtd_250","min_valley_gtd_250","avg_valley_gtd_250","valley_most_recent_gtd_length_250","n_valley_100","good_days_to_debit_by_valley_100","valley_trans_history_ratio_100","valley_good_days_to_debit_trans_history_ratio100","min_valley_prominence_100","max_valley_gtd_100","min_valley_gtd_100","avg_valley_gtd_100","valley_most_recent_gtd_length_100"],"feature_types":["float","float","float","float","float","float","float","float","float","float","float","float","float","float","float","float","float","float","float","float","float","float","float","float","float","float","float","float","float","float","float","float","float","float","float","float","float","float","float","float","float","float","float","float","float","float","float","float","float","float","float","float","float","float","float","float","float","float","float","float","float","float","float","float","float","float","float","float","float","float","float","float","float","float","float","float","float","float","float","float","float","float","float","float","float","float","float","float","float","float","float","float","float","float","float","float","float"],"gradient_booster":{"model":{"gbtree_model_param":{"num_parallel_tree":"1","num_trees":"78"},"iteration_indptr":[0,1,2,3,4,5,6,7,8,9,10,11,12,13,14,15,16,17,18,19,20,21,22,23,24,25,26,27,28,29,30,31,32,33,34,35,36,37,38,39,40,41,42,43,44,45,46,47,48,49,50,51,52,53,54,55,56,57,58,59,60,61,62,63,64,65,66,67,68,69,70,71,72,73,74,75,76,77,78],"tree_info":[0,0,0,0,0,0,0,0,0,0,0,0,0,0,0,0,0,0,0,0,0,0,0,0,0,0,0,0,0,0,0,0,0,0,0,0,0,0,0,0,0,0,0,0,0,0,0,0,0,0,0,0,0,0,0,0,0,0,0,0,0,0,0,0,0,0,0,0,0,0,0,0,0,0,0,0,0,0],"trees":[{"base_weights":[1.8528324E-2,-1.828213E-1,2.1062791E-1,-5.655943E-1,-1.4004698E-1,1.1576498E-1,4.13896E-1,-2.1408529E-3,-2.829248E-2,-1.9493232E-2,-3.8570804E-3,2.4562047E-3,2.0062866E-2,1.9771226E-2,3.2681446E-3],"categories":[],"categories_nodes":[],"categories_segments":[],"categories_sizes":[],"default_left":[0,0,1,0,0,0,0,0,0,0,0,0,0,0,0],"id":0,"left_children":[1,3,5,7,9,11,13,-1,-1,-1,-1,-1,-1,-1,-1],"loss_changes":[1.5195778E2,3.132766E1,3.87191E1,1.893042E1,2.4098274E1,2.8874287E1,2.4335594E1,0E0,0E0,0E0,0E0,0E0,0E0,0E0,0E0],"parents":[2147483647,0,0,1,1,2,2,3,3,4,4,5,5,6,6],"right_children":[2,4,6,8,10,12,14,-1,-1,-1,-1,-1,-1,-1,-1],"split_conditions":[2.80501E3,2E0,2E0,1.08016E3,1.114E3,8.92856E3,4E0,-2.1408529E-3,-2.829248E-2,-1.9493232E-2,-3.8570804E-3,2.4562047E-3,2.0062866E-2,1.9771226E-2,3.2681446E-3],"split_indices":[9,48,11,8,35,9,58,0,0,0,0,0,0,0,0],"split_type":[0,0,0,0,0,0,0,0,0,0,0,0,0,0,0],"sum_hessian":[3.9266138E3,1.9171652E3,2.0094487E3,1.9147E2,1.7256951E3,1.3711384E3,6.383103E2,5.3272186E1,1.3819781E2,1.4882605E2,1.576869E3,1.2276774E3,1.4346109E2,4.6938153E2,1.6892876E2],"tree_param":{"num_deleted":"0","num_feature":"97","num_nodes":"15","size_leaf_vector":"1"}},{"base_weights":[2.901321E-3,-2.3200059E-1,1.9503823E-1,-3.7000263E-1,-1.0016232E-1,2.7378196E-1,-9.683509E-2,-1.53740365E-2,5.64154E-3,1.2195706E-2,-5.977389E-3,1.1480774E-2,-1.250492E-3,-1.0223175E-2,1.1358891E-2],"categories":[],"categories_nodes":[],"categories_segments":[],"categories_sizes":[],"default_left":[1,0,0,0,1,0,0,0,0,0,0,0,0,0,0],"id":1,"left_children":[1,3,5,7,9,11,13,-1,-1,-1,-1,-1,-1,-1,-1],"loss_changes":[1.77189E2,3.209983E1,4.9660225E1,1.9304588E1,2.3391428E1,1.8028763E1,3.2888905E1,0E0,0E0,0E0,0E0,0E0,0E0,0E0,0E0],"parents":[2147483647,0,0,1,1,2,2,3,3,4,4,5,5,6,6],"right_children":[2,4,6,8,10,12,14,-1,-1,-1,-1,-1,-1,-1,-1],"split_conditions":[2.84775E3,5E0,6E0,1.34E1,1.97866E3,5.8064514E-1,2.318925E3,-1.53740365E-2,5.64154E-3,1.2195706E-2,-5.977389E-3,1.1480774E-2,-1.250492E-3,-1.0223175E-2,1.1358891E-2],"split_indices":[16,78,2,57,19,71,45,0,0,0,0,0,0,0,0],"split_type":[0,0,0,0,0,0,0,0,0,0,0,0,0,0,0],"sum_hessian":[3.9238438E3,1.7653484E3,2.1584954E3,8.6161786E2,9.037305E2,1.6999443E3,4.5855096E2,7.965019E2,6.511595E1,1.11176575E2,7.9255396E2,1.528558E3,1.7138635E2,3.1819632E2,1.4035463E2],"tree_param":{"num_deleted":"0","num_feature":"97","num_nodes":"15","size_leaf_vector":"1"}},{"base_weights":[1.6166199E-2,-2.0756795E-1,1.9577125E-1,-3.955629E-1,-6.5518074E-2,-3.4029916E-2,2.7009606E-1,-3.27288E-2,-1.0385837E-2,2.8289678E-2,-3.367619E-3,7.4604095E-4,-3.87815E-2,5.42658E-3,1.55580025E-2],"categories":[],"categories_nodes":[],"categories_segments":[],"categories_sizes":[],"default_left":[0,0,0,0,0,0,0,0,0,0,0,0,0,0,0],"id":2,"left_children":[1,3,5,7,9,11,13,-1,-1,-1,-1,-1,-1,-1,-1],"loss_changes":[1.5855153E2,4.689392E1,3.7391808E1,4.2388718E1,2.0655174E1,2.9201633E1,3.0309769E1,0E0,0E0,0E0,0E0,0E0,0E0,0E0,0E0],"parents":[2147483647,0,0,1,1,2,2,3,3,4,4,5,5,6,6],"right_children":[2,4,6,8,10,12,14,-1,-1,-1,-1,-1,-1,-1,-1],"split_conditions":[3.08858E3,6E0,5.394737E-1,5.3881E2,1.6483517E-1,3.3E1,7.8697E2,-3.27288E-2,-1.0385837E-2,2.8289678E-2,-3.367619E-3,7.4604095E-4,-3.87815E-2,5.42658E-3,1.55580025E-2],"split_indices":[10,59,62,44,91,93,5,0,0,0,0,0,0,0,0],"split_type":[0,0,0,0,0,0,0,0,0,0,0,0,0,0,0],"sum_hessian":[3.9435908E3,1.7559855E3,2.1876052E3,7.549912E2,1.0009943E3,5.347474E2,1.6528578E3,1.4561899E2,6.093722E2,2.8454868E1,9.725394E2,5.0843503E2,2.6312365E1,8.980608E2,7.54797E2],"tree_param":{"num_deleted":"0","num_feature":"97","num_nodes":"15","size_leaf_vector":"1"}},{"base_weights":[-2.485698E-3,-1.8568853E-1,1.7777818E-1,-1.515005E-1,-6.336656E-1,-3.793706E-1,2.120534E-1,-1.0722661E-2,-6.390577E-4,-3.5184417E-2,-9.871393E-3,1.1570161E-2,-2.6179424E-2,5.8539915E-3,1.7500892E-2],"categories":[],"categories_nodes":[],"categories_segments":[],"categories_sizes":[],"default_left":[0,1,0,0,0,0,0,0,0,0,0,0,0,0,0],"id":3,"left_children":[1,3,5,7,9,11,13,-1,-1,-1,-1,-1,-1,-1,-1],"loss_changes":[1.2987988E2,2.9777504E1,3.7936497E1,3.3223557E1,1.5567448E1,2.5946932E1,2.6358635E1,0E0,0E0,0E0,0E0,0E0,0E0,0E0,0E0],"parents":[2147483647,0,0,1,1,2,2,3,3,4,4,5,5,6,6],"right_children":[2,4,6,8,10,12,14,-1,-1,-1,-1,-1,-1,-1,-1],"split_conditions":[2.85595E3,1.565E3,1.7E1,5E0,6E0,1.7E1,1.1188069E4,-1.0722661E-2,-6.390577E-4,-3.5184417E-2,-9.871393E-3,1.1570161E-2,-2.6179424E-2,5.8539915E-3,1.7500892E-2],"split_indices":[9,27,51,78,96,69,1,0,0,0,0,0,0,0,0],"split_type":[0,0,0,0,0,0,0,0,0,0,0,0,0,0,0],"sum_hessian":[3.9307246E3,1.9494641E3,1.9812605E3,1.8124866E3,1.3697752E2,1.1423274E2,1.8670277E3,8.98811E2,9.1367566E2,7.344499E1,6.353254E1,3.6472366E1,7.7760376E1,1.5406957E3,3.2633212E2],"tree_param":{"num_deleted":"0","num_feature":"97","num_nodes":"15","size_leaf_vector":"1"}},{"base_weights":[-1.2013982E-2,-2.297014E-1,1.6737488E-1,-5.4718214E-1,-1.6406606E-1,5.2288078E-2,3.8190112E-1,-3.1793702E-3,-2.4423474E-2,-1.34060485E-2,-1.9430054E-3,1.3498774E-3,3.3654775E-2,1.778882E-2,2.9406E-3],"categories":[],"categories_nodes":[],"categories_segments":[],"categories_sizes":[],"default_left":[1,0,0,0,0,0,0,0,0,0,0,0,0,0,0],"id":4,"left_children":[1,3,5,7,9,11,13,-1,-1,-1,-1,-1,-1,-1,-1],"loss_changes":[1.5212366E2,3.65829E1,5.2707237E1,1.5036621E1,3.1976799E1,1.897201E1,2.1577202E1,0E0,0E0,0E0,0E0,0E0,0E0,0E0,0E0],"parents":[2147483647,0,0,1,1,2,2,3,3,4,4,5,5,6,6],"right_children":[2,4,6,8,10,12,14,-1,-1,-1,-1,-1,-1,-1,-1],"split_conditions":[2.8511E3,2.1621622E-1,6.33287E3,2.6152E2,2E0,1.1E1,8.9783E2,-3.1793702E-3,-2.4423474E-2,-1.34060485E-2,-1.9430054E-3,1.3498774E-3,3.3654775E-2,1.778882E-2,2.9406E-3],"split_indices":[16,53,10,54,25,75,54,0,0,0,0,0,0,0,0],"split_type":[0,0,0,0,0,0,0,0,0,0,0,0,0,0,0],"sum_hessian":[3.8934932E3,1.7588612E3,2.134632E3,3.0006265E2,1.4587986E3,1.3901284E3,7.4450354E2,5.745561E1,2.4260704E2,5.2957434E2,9.2922424E2,1.3654386E3,2.4689838E1,5.6532135E2,1.791822E2],"tree_param":{"num_deleted":"0","num_feature":"97","num_nodes":"15","size_leaf_vector":"1"}},{"base_weights":[1.2064862E-2,-2.0780334E-1,1.618768E-1,-3.225829E-1,-8.526737E-2,4.6670027E-2,3.9006528E-1,-1.1446041E-2,-6.374355E-2,-1.2146241E-2,8.638801E-4,-2.3374882E-2,2.4003906E-3,1.5718773E-2,-1.6137468E-2],"categories":[],"categories_nodes":[],"categories_segments":[],"categories_sizes":[],"default_left":[1,0,0,0,0,0,0,0,0,0,0,0,0,0,0],"id":5,"left_children":[1,3,5,7,9,11,13,-1,-1,-1,-1,-1,-1,-1,-1],"loss_changes":[1.2975227E2,2.2424324E1,6.157076E1,1.6951462E1,2.021452E1,1.871705E1,2.0867256E1,0E0,0E0,0E0,0E0,0E0,0E0,0E0,0E0],"parents":[2147483647,0,0,1,1,2,2,3,3,4,4,5,5,6,6],"right_children":[2,4,6,8,10,12,14,-1,-1,-1,-1,-1,-1,-1,-1],"split_conditions":[3.10721E3,5E0,6.33489E3,5.9E1,3E0,1.7582418E-1,5.529412E-1,-1.1446041E-2,-6.374355E-2,-1.2146241E-2,8.638801E-4,-2.3374882E-2,2.4003906E-3,1.5718773E-2,-1.6137468E-2],"split_indices":[29,78,10,84,31,53,91,0,0,0,0,0,0,0,0],"split_type":[0,0,0,0,0,0,0,0,0,0,0,0,0,0,0],"sum_hessian":[3.9370994E3,1.5953344E3,2.341765E3,8.228822E2,7.7245215E2,1.556928E3,7.848369E2,8.151432E2,7.7389936E0,2.3923637E2,5.3321576E2,3.9110077E1,1.5178179E3,7.559782E2,2.8858702E1],"tree_param":{"num_deleted":"0","num_feature":"97","num_nodes":"15","size_leaf_vector":"1"}},{"base_weights":[5.597167E-3,-1.9702822E-1,1.558472E-1,-5.151667E-1,-1.5079178E-1,-6.5726376E-1,1.7771888E-1,1.5822727E-2,-2.4726974E-2,-2.1570394E-2,-4.242891E-3,8.32802E-3,-3.595768E-2,-5.2089553E-2,6.8523814E-3],"categories":[],"categories_nodes":[],"categories_segments":[],"categories_sizes":[],"default_left":[0,0,0,0,0,0,0,0,0,0,0,0,0,0,0],"id":6,"left_children":[1,3,5,7,9,11,13,-1,-1,-1,-1,-1,-1,-1,-1],"loss_changes":[1.1885435E2,2.4374E1,3.9985355E1,2.971416E1,2.2881771E1,1.6216877E1,2.1807701E1,0E0,0E0,0E0,0E0,0E0,0E0,0E0,0E0],"parents":[2147483647,0,0,1,1,2,2,3,3,4,4,5,5,6,6],"right_children":[2,4,6,8,10,12,14,-1,-1,-1,-1,-1,-1,-1,-1],"split_conditions":[2.98896E3,1.33107E3,3.3333333E0,5E0,1.1363637E-2,3E0,1.590909E-1,1.5822727E-2,-2.4726974E-2,-2.1570394E-2,-4.242891E-3,8.32802E-3,-3.595768E-2,-5.2089553E-2,6.8523814E-3],"split_indices":[10,35,76,84,41,31,62,0,0,0,0,0,0,0,0],"split_type":[0,0,0,0,0,0,0,0,0,0,0,0,0,0,0],"sum_hessian":[3.901897E3,1.6612388E3,2.2406582E3,2.0950339E2,1.4517354E3,5.7927505E1,2.1827307E3,2.836271E1,1.8114069E2,1.1389759E2,1.3378378E3,1.5081569E1,4.284594E1,7.751648E0,2.174979E3],"tree_param":{"num_deleted":"0","num_feature":"97","num_nodes":"15","size_leaf_vector":"1"}},{"base_weights":[9.662335E-3,-1.4565794E-1,1.3852966E-1,-2.2212167E-1,9.976861E-2,1.7796025E-1,-2.8159785E-1,-1.0201972E-2,-5.112779E-4,-4.8525417E-3,1.0743633E-2,-4.26593E-2,7.0559867E-3,-4.7929366E-3,-2.9626902E-2],"categories":[],"categories_nodes":[],"categories_segments":[],"categories_sizes":[],"default_left":[1,0,0,0,0,0,0,0,0,0,0,0,0,0,0],"id":7,"left_children":[1,3,5,7,9,11,13,-1,-1,-1,-1,-1,-1,-1,-1],"loss_changes":[7.8585434E1,3.3433987E1,3.559801E1,1.4649361E1,1.8427261E1,3.004287E1,1.4394791E1,0E0,0E0,0E0,0E0,0E0,0E0,0E0,0E0],"parents":[2147483647,0,0,1,1,2,2,3,3,4,4,5,5,6,6],"right_children":[2,4,6,8,10,12,14,-1,-1,-1,-1,-1,-1,-1,-1],"split_conditions":[2.8218E3,6.4444447E-1,5.824176E-1,6.04E2,7.692308E-2,8.6021505E-2,2.067976E3,-1.0201972E-2,-5.112779E-4,-4.8525417E-3,1.0743633E-2,-4.26593E-2,7.0559867E-3,-4.7929366E-3,-2.9626902E-2],"split_indices":[16,62,71,82,61,42,45,0,0,0,0,0,0,0,0],"split_type":[0,0,0,0,0,0,0,0,0,0,0,0,0,0,0],"sum_hessian":[3.924097E3,1.7793457E3,2.1447512E3,1.3567513E3,4.2259436E2,1.9612627E3,1.8348842E2,1.0864288E3,2.703225E2,1.9055464E2,2.3203973E2,1.6022882E1,1.9452399E3,1.4237599E2,4.1112423E1],"tree_param":{"num_deleted":"0","num_feature":"97","num_nodes":"15","size_leaf_vector":"1"}},{"base_weights":[-1.5583064E-2,-2.647288E-1,9.7206295E-2,-2.1783556E-1,-8.304837E-1,-8.009469E-2,1.8802738E-1,-1.6093932E-2,-4.1484972E-3,-4.2306993E-2,-4.2185616E-3,1.6614418E-2,-5.5345073E-3,4.2090053E-3,1.565102E-2],"categories":[],"categories_nodes":[],"categories_segments":[],"categories_sizes":[],"default_left":[0,0,1,0,0,0,0,0,0,0,0,0,0,0,0],"id":8,"left_children":[1,3,5,7,9,11,13,-1,-1,-1,-1,-1,-1,-1,-1],"loss_changes":[1.0988603E2,3.2149048E1,4.3362152E1,2.5650364E1,2.0221573E1,3.2957504E1,3.0963932E1,0E0,0E0,0E0,0E0,0E0,0E0,0E0,0E0],"parents":[2147483647,0,0,1,1,2,2,3,3,4,4,5,5,6,6],"right_children":[2,4,6,8,10,12,14,-1,-1,-1,-1,-1,-1,-1,-1],"split_conditions":[3.5E1,8E0,2.78722E3,2.23726E3,9.0467E2,5.2727275E0,6.57469E3,-1.6093932E-2,-4.1484972E-3,-4.2306993E-2,-4.2185616E-3,1.6614418E-2,-5.5345073E-3,4.2090053E-3,1.565102E-2],"split_indices":[51,2,16,29,72,66,9,0,0,0,0,0,0,0,0],"split_type":[0,0,0,0,0,0,0,0,0,0,0,0,0,0,0],"sum_hessian":[3.9083882E3,1.2175544E3,2.6908337E3,1.1256445E3,9.190993E1,9.1149567E2,1.779338E3,3.7259833E2,7.530462E2,6.404859E1,2.7861336E1,1.04355E2,8.071407E2,1.3459496E3,4.3338837E2],"tree_param":{"num_deleted":"0","num_feature":"97","num_nodes":"15","size_leaf_vector":"1"}},{"base_weights":[7.7412305E-3,-1.5138912E-1,1.5956612E-1,-4.774437E-1,-1.0804947E-1,-2.9179367E-1,1.8903255E-1,-6.694427E-3,-2.7983807E-2,-4.9337097E-3,2.0870067E-2,-1.3319148E-2,4.9692895E-2,3.3697393E-3,1.2070985E-2],"categories":[],"categories_nodes":[],"categories_segments":[],"categories_sizes":[],"default_left":[0,0,0,0,0,0,0,0,0,0,0,0,0,0,0],"id":9,"left_children":[1,3,5,7,9,11,13,-1,-1,-1,-1,-1,-1,-1,-1],"loss_changes":[9.52047E1,2.7137318E1,2.687664E1,1.8246334E1,2.7810608E1,1.3747721E1,2.5176613E1,0E0,0E0,0E0,0E0,0E0,0E0,0E0,0E0],"parents":[2147483647,0,0,1,1,2,2,3,3,4,4,5,5,6,6],"right_children":[2,4,6,8,10,12,14,-1,-1,-1,-1,-1,-1,-1,-1],"split_conditions":[2.83537E3,1.6129032E-1,2.52291E3,2.8017E2,1.26382E3,1.8E1,8.4798517E2,-6.694427E-3,-2.7983807E-2,-4.9337097E-3,2.0870067E-2,-1.3319148E-2,4.9692895E-2,3.3697393E-3,1.2070985E-2],"split_indices":[9,53,35,9,63,6,5,0,0,0,0,0,0,0,0],"split_type":[0,0,0,0,0,0,0,0,0,0,0,0,0,0,0],"sum_hessian":[3.938522E3,1.9229875E3,2.0155344E3,2.244335E2,1.6985541E3,1.2296586E2,1.8925686E3,1.0833965E2,1.1609385E2,1.6394739E3,5.908016E1,1.1893413E2,4.031729E0,1.0951077E3,7.9746094E2],"tree_param":{"num_deleted":"0","num_feature":"97","num_nodes":"15","size_leaf_vector":"1"}},{"base_weights":[-1.9552046E-2,-1.854904E-1,1.1359197E-1,-6.909185E-2,-3.0270073E-1,5.0684005E-2,3.206147E-1,3.5490526E-3,-8.643914E-3,-2.216384E-2,-8.345643E-3,4.82453E-3,-3.744476E-3,3.8729764E-3,1.8812608E-2],"categories":[],"categories_nodes":[],"categories_segments":[],"categories_sizes":[],"default_left":[0,0,0,1,0,0,0,0,0,0,0,0,0,0,0],"id":10,"left_children":[1,3,5,7,9,11,13,-1,-1,-1,-1,-1,-1,-1,-1],"loss_changes":[8.58889E1,2.3589E1,2.8074387E1,2.3321785E1,1.9682976E1,1.9752628E1,2.002829E1,0E0,0E0,0E0,0E0,0E0,0E0,0E0,0E0],"parents":[2147483647,0,0,1,1,2,2,3,3,4,4,5,5,6,6],"right_children":[2,4,6,8,10,12,14,-1,-1,-1,-1,-1,-1,-1,-1],"split_conditions":[3.08457E3,5.7E1,7.8E3,3.9573E2,5.4945055E-2,3.7203E3,8E0,3.5490526E-3,-8.643914E-3,-2.216384E-2,-8.345643E-3,4.82453E-3,-3.744476E-3,3.8729764E-3,1.8812608E-2],"split_indices":[10,38,10,35,61,37,50,0,0,0,0,0,0,0,0],"split_type":[0,0,0,0,0,0,0,0,0,0,0,0,0,0,0],"sum_hessian":[3.8854424E3,1.7295374E3,2.155905E3,8.685843E2,8.60953E2,1.6544325E3,5.0147256E2,4.326419E2,4.3594238E2,1.8107016E2,6.798829E2,1.0875323E3,5.6690015E2,2.3136688E2,2.7010568E2],"tree_param":{"num_deleted":"0","num_feature":"97","num_nodes":"15","size_leaf_vector":"1"}},{"base_weights":[-1.4591595E-3,5.964493E-2,-2.4598101E-1,-1.2877398E-2,2.6441956E-1,-7.7010944E-2,-4.2752662E-1,1.4336503E-3,-8.775284E-3,-3.37049E-2,1.0509274E-2,-9.573301E-3,9.766415E-3,-2.5147844E-2,-1.8030564E-4],"categories":[],"categories_nodes":[],"categories_segments":[],"categories_sizes":[],"default_left":[0,0,0,0,0,0,0,0,0,0,0,0,0,0,0],"id":11,"left_children":[1,3,5,7,9,11,13,-1,-1,-1,-1,-1,-1,-1,-1],"loss_changes":[5.8695328E1,4.667942E1,2.4059399E1,2.657641E1,1.7313202E1,2.498642E1,3.960585E1,0E0,0E0,0E0,0E0,0E0,0E0,0E0,0E0],"parents":[2147483647,0,0,1,1,2,2,3,3,4,4,5,5,6,6],"right_children":[2,4,6,8,10,12,14,-1,-1,-1,-1,-1,-1,-1,-1],"split_conditions":[5.625E-1,4.93838E3,1.39567E3,1.07928E3,2.6666667E0,8.8354E2,6.687E2,1.4336503E-3,-8.775284E-3,-3.37049E-2,1.0509274E-2,-9.573301E-3,9.766415E-3,-2.5147844E-2,-1.8030564E-4],"split_indices":[71,9,9,38,48,44,5,0,0,0,0,0,0,0,0],"split_type":[0,0,0,0,0,0,0,0,0,0,0,0,0,0,0],"sum_hessian":[3.926254E3,3.1418691E3,7.843849E2,2.3208474E3,8.210217E2,4.0700964E2,3.7737524E2,1.8865537E3,4.3429367E2,1.15207E1,8.0950104E2,2.6606564E2,1.40944E2,2.3757126E2,1.3980399E2],"tree_param":{"num_deleted":"0","num_feature":"97","num_nodes":"15","size_leaf_vector":"1"}},{"base_weights":[8.678401E-3,-1.2577705E-1,1.3898192E-1,-2.2471872E-1,2.8198108E-2,-7.194852E-2,1.8699417E-1,-1.3881402E-2,-2.8152352E-3,-5.579502E-4,2.1217352E-2,-1.500553E-3,-5.4666E-2,4.332692E-3,1.2340799E-2],"categories":[],"categories_nodes":[],"categories_segments":[],"categories_sizes":[],"default_left":[0,0,0,0,0,1,0,0,0,0,0,0,0,0,0],"id":12,"left_children":[1,3,5,7,9,11,13,-1,-1,-1,-1,-1,-1,-1,-1],"loss_changes":[6.924469E1,2.9641157E1,2.0340744E1,2.6108387E1,1.7824652E1,1.6421824E1,1.6641182E1,0E0,0E0,0E0,0E0,0E0,0E0,0E0,0E0],"parents":[2147483647,0,0,1,1,2,2,3,3,4,4,5,5,6,6],"right_children":[2,4,6,8,10,12,14,-1,-1,-1,-1,-1,-1,-1,-1],"split_conditions":[2.82037E3,7.692308E-2,5.1111114E-1,5E0,1.35856E3,7.3357E3,5.97668E3,-1.3881402E-2,-2.8152352E-3,-5.579502E-4,2.1217352E-2,-1.500553E-3,-5.4666E-2,4.332692E-3,1.2340799E-2],"split_indices":[9,90,62,32,44,34,9,0,0,0,0,0,0,0,0],"split_type":[0,0,0,0,0,0,0,0,0,0,0,0,0,0,0],"sum_hessian":[3.9502288E3,1.9441464E3,2.0060824E3,1.183324E3,7.608223E2,3.7185648E2,1.634226E3,5.931947E2,5.9012933E2,7.055274E2,5.529493E1,3.6461685E2,7.2396135E0,1.0983325E3,5.358935E2],"tree_param":{"num_deleted":"0","num_feature":"97","num_nodes":"15","size_leaf_vector":"1"}},{"base_weights":[5.5889455E-3,7.4537955E-2,-2.8690562E-1,-1.10823296E-1,2.2920793E-1,-1.2595974E0,-2.4240166E-1,-1.5283153E-2,-2.408747E-3,1.011609E-2,-9.099464E-3,-5.3960256E-2,-4.5573367E-3,-1.2881908E-2,6.437323E-3],"categories":[],"categories_nodes":[],"categories_segments":[],"categories_sizes":[],"default_left":[0,0,0,0,0,0,0,0,0,0,0,0,0,0,0],"id":13,"left_children":[1,3,5,7,9,11,13,-1,-1,-1,-1,-1,-1,-1,-1],"loss_changes":[7.965729E1,9.166337E1,3.2313477E1,2.0080154E1,3.5054306E1,6.859722E0,3.1068382E1,0E0,0E0,0E0,0E0,0E0,0E0,0E0,0E0],"parents":[2147483647,0,0,1,1,2,2,3,3,4,4,5,5,6,6],"right_children":[2,4,6,8,10,12,14,-1,-1,-1,-1,-1,-1,-1,-1],"split_conditions":[6E0,2.58658E3,4.928571E0,1.5789473E-1,5.3763443E-1,1.4439978E4,8.940441E3,-1.5283153E-2,-2.408747E-3,1.011609E-2,-9.099464E-3,-5.3960256E-2,-4.5573367E-3,-1.2881908E-2,6.437323E-3],"split_indices":[2,9,95,53,81,1,1,0,0,0,0,0,0,0,0],"split_type":[0,0,0,0,0,0,0,0,0,0,0,0,0,0,0],"sum_hessian":[3.9477053E3,3.1952522E3,7.524531E2,1.453544E3,1.7417081E3,3.1723486E1,7.207297E2,1.9300833E2,1.2605356E3,1.5989749E3,1.4273328E2,2.6961945E1,4.7615414E0,5.7710895E2,1.4362068E2],"tree_param":{"num_deleted":"0","num_feature":"97","num_nodes":"15","size_leaf_vector":"1"}},{"base_weights":[7.5955554E-3,-1.396865E-1,1.4376515E-1,-2.0219758E-1,4.4409093E-2,-1.3859628E0,1.5029585E-1,-6.6623967E-3,-3.583804E-2,-8.339714E-4,2.3531262E-2,-6.2997855E-2,1.7966695E-2,8.415141E-3,2.1399423E-3],"categories":[],"categories_nodes":[],"categories_segments":[],"categories_sizes":[],"default_left":[0,0,0,1,0,0,0,0,0,0,0,0,0,0,0],"id":14,"left_children":[1,3,5,7,9,11,13,-1,-1,-1,-1,-1,-1,-1,-1],"loss_changes":[7.849579E1,2.1647865E1,2.0529526E1,2.4710804E1,1.8752172E1,5.8128433E0,1.4213936E1,0E0,0E0,0E0,0E0,0E0,0E0,0E0,0E0],"parents":[2147483647,0,0,1,1,2,2,3,3,4,4,5,5,6,6],"right_children":[2,4,6,8,10,12,14,-1,-1,-1,-1,-1,-1,-1,-1],"split_conditions":[2.80239E3,7.54717E-2,3.2786883E-2,5.15084E3,1E1,3.13261E3,9.3889E2,-6.6623967E-3,-3.583804E-2,-8.339714E-4,2.3531262E-2,-6.2997855E-2,1.7966695E-2,8.415141E-3,2.1399423E-3],"split_indices":[9,52,61,33,96,44,26,0,0,0,0,0,0,0,0],"split_type":[0,0,0,0,0,0,0,0,0,0,0,0,0,0,0],"sum_hessian":[3.9118735E3,1.8792329E3,2.0326406E3,1.4028146E3,4.7641824E2,7.740932E0,2.0248997E3,1.3622545E3,4.0560097E1,4.2862857E2,4.7789673E1,6.736007E0,1.0049248E0,1.1150032E3,9.098965E2],"tree_param":{"num_deleted":"0","num_feature":"97","num_nodes":"15","size_leaf_vector":"1"}},{"base_weights":[2.3321753E-2,-1.391212E-1,1.5160675E-1,-9.727168E-2,-5.771283E-1,-4.7662848E-1,1.7126E-1,-6.252497E-3,6.3931914E-3,-6.8076956E-3,-4.2799238E-2,1.698546E-2,-2.8279303E-2,-3.7378065E-2,6.6932193E-3],"categories":[],"categories_nodes":[],"categories_segments":[],"categories_sizes":[],"default_left":[0,1,0,0,0,1,0,0,0,0,0,0,0,0,0],"id":15,"left_children":[1,3,5,7,9,11,13,-1,-1,-1,-1,-1,-1,-1,-1],"loss_changes":[8.130345E1,3.1502419E1,2.699778E1,2.9888542E1,3.3609833E1,1.7850739E1,2.1161888E1,0E0,0E0,0E0,0E0,0E0,0E0,0E0,0E0],"parents":[2147483647,0,0,1,1,2,2,3,3,4,4,5,5,6,6],"right_children":[2,4,6,8,10,12,14,-1,-1,-1,-1,-1,-1,-1,-1],"split_conditions":[3.0807E3,1.02576E3,6.85552E2,6E0,3.7402E2,1.87317E3,2.2580644E-1,-6.252497E-3,6.3931914E-3,-6.8076956E-3,-4.2799238E-2,1.698546E-2,-2.8279303E-2,-3.7378065E-2,6.6932193E-3],"split_indices":[10,27,73,39,38,35,62,0,0,0,0,0,0,0,0],"split_type":[0,0,0,0,0,0,0,0,0,0,0,0,0,0,0],"sum_hessian":[3.8994133E3,1.7205857E3,2.178828E3,1.5716509E3,1.4893477E2,6.53832E1,2.1134446E3,1.2451472E3,3.265036E2,8.894016E1,5.999461E1,1.506062E1,5.032258E1,1.4240047E1,2.0992046E3],"tree_param":{"num_deleted":"0","num_feature":"97","num_nodes":"15","size_leaf_vector":"1"}},{"base_weights":[-1.18573895E-2,-2.0879936E-1,7.7794634E-2,-1.3513932E-1,-5.1076156E-1,1.4147921E-1,-1.12224884E-1,-4.1083707E-3,-3.2244395E-2,-4.2396314E-2,-1.3429392E-2,-2.1004763E-2,5.9377546E-3,-2.6058054E-2,-2.2105786E-3],"categories":[],"categories_nodes":[],"categories_segments":[],"categories_sizes":[],"default_left":[0,0,0,1,0,0,0,0,0,0,0,0,0,0,0],"id":16,"left_children":[1,3,5,7,9,11,13,-1,-1,-1,-1,-1,-1,-1,-1],"loss_changes":[6.859103E1,2.6960758E1,3.2322315E1,1.7655949E1,2.2017231E1,2.5405354E1,2.0789427E1,0E0,0E0,0E0,0E0,0E0,0E0,0E0,0E0],"parents":[2147483647,0,0,1,1,2,2,3,3,4,4,5,5,6,6],"right_children":[2,4,6,8,10,12,14,-1,-1,-1,-1,-1,-1,-1,-1],"split_conditions":[4.3010753E-1,4E0,5E0,3.97034E3,1.60442E3,8E0,5.5454545E0,-4.1083707E-3,-3.2244395E-2,-4.2396314E-2,-1.3429392E-2,-2.1004763E-2,5.9377546E-3,-2.6058054E-2,-2.2105786E-3],"split_indices":[53,2,2,15,29,93,76,0,0,0,0,0,0,0,0],"split_type":[0,0,0,0,0,0,0,0,0,0,0,0,0,0,0],"sum_hessian":[3.8827644E3,1.2141971E3,2.6685674E3,9.772632E2,2.3693391E2,1.9989093E3,6.69658E2,9.4625275E2,3.1010448E1,4.448341E1,1.924505E2,4.8821377E1,1.9500879E3,5.4284927E1,6.153731E2],"tree_param":{"num_deleted":"0","num_feature":"97","num_nodes":"15","size_leaf_vector":"1"}},{"base_weights":[3.521698E-3,-6.335923E-2,2.6551569E-1,-2.7649936E-1,2.7648866E-4,-2.8138295E-1,3.033566E-1,-9.595918E-3,-4.6784546E-2,9.106937E-4,-2.0000177E-2,-3.9769024E-2,1.461497E-4,1.23167215E-2,-1.8524725E-2],"categories":[],"categories_nodes":[],"categories_segments":[],"categories_sizes":[],"default_left":[0,0,0,0,1,0,0,0,0,0,0,0,0,0,0],"id":17,"left_children":[1,3,5,7,9,11,13,-1,-1,-1,-1,-1,-1,-1,-1],"loss_changes":[6.9259605E1,4.270945E1,1.6722023E1,1.3055141E1,3.152074E1,1.1797809E1,1.6631142E1,0E0,0E0,0E0,0E0,0E0,0E0,0E0,0E0],"parents":[2147483647,0,0,1,1,2,2,3,3,4,4,5,5,6,6],"right_children":[2,4,6,8,10,12,14,-1,-1,-1,-1,-1,-1,-1,-1],"split_conditions":[6.31866E3,2.3E1,2.6942E2,3.5E1,4.54347E3,7.777778E-2,2.9E1,-9.595918E-3,-4.6784546E-2,9.106937E-4,-2.0000177E-2,-3.9769024E-2,1.461497E-4,1.23167215E-2,-1.8524725E-2],"split_indices":[10,51,82,77,33,61,55,0,0,0,0,0,0,0,0],"split_type":[0,0,0,0,0,0,0,0,0,0,0,0,0,0,0],"sum_hessian":[3.9505227E3,3.147728E3,8.027947E2,7.2296094E2,2.424767E3,5.1530403E1,7.512643E2,7.105469E2,1.2414063E1,2.3212786E3,1.0348856E2,1.2991442E1,3.8538963E1,7.270377E2,2.422655E1],"tree_param":{"num_deleted":"0","num_feature":"97","num_nodes":"15","size_leaf_vector":"1"}},{"base_weights":[6.003947E-3,-1.1466432E-1,1.290835E-1,-3.8407084E-1,-6.854629E-2,2.744522E-1,5.5698756E-2,-4.4421167E-3,-3.0205129E-2,-3.1737646E-3,1.6983354E-2,1.2649182E-2,-3.1317782E-3,-3.3854003E-4,1.4590062E-2],"categories":[],"categories_nodes":[],"categories_segments":[],"categories_sizes":[],"default_left":[0,0,0,0,0,0,0,0,0,0,0,0,0,0,0],"id":18,"left_children":[1,3,5,7,9,11,13,-1,-1,-1,-1,-1,-1,-1,-1],"loss_changes":[5.8876457E1,2.4844528E1,2.0920193E1,3.2952442E1,1.4991739E1,1.5405132E1,2.8425898E1,0E0,0E0,0E0,0E0,0E0,0E0,0E0,0E0],"parents":[2147483647,0,0,1,1,2,2,3,3,4,4,5,5,6,6],"right_children":[2,4,6,8,10,12,14,-1,-1,-1,-1,-1,-1,-1,-1],"split_conditions":[5.3E1,8.6021505E-2,1.74979E3,3.8887E2,9.0909094E-1,9.125E0,7.29944E3,-4.4421167E-3,-3.0205129E-2,-3.1737646E-3,1.6983354E-2,1.2649182E-2,-3.1317782E-3,-3.3854003E-4,1.4590062E-2],"split_indices":[60,42,33,54,81,48,9,0,0,0,0,0,0,0,0],"split_type":[0,0,0,0,0,0,0,0,0,0,0,0,0,0,0],"sum_hessian":[3.962167E3,2.0007034E3,1.9614636E3,2.9134814E2,1.7093552E3,6.570748E2,1.3043888E3,1.8060556E2,1.10742584E2,1.6575349E3,5.182029E1,5.560715E2,1.0100335E2,1.0943541E3,2.1003467E2],"tree_param":{"num_deleted":"0","num_feature":"97","num_nodes":"15","size_leaf_vector":"1"}},{"base_weights":[-4.137477E-3,-1.1899377E-1,1.280023E-1,-2.0278983E-1,6.753135E-2,-8.525336E-1,1.4597447E-1,-9.302493E-3,1.0441747E-2,-6.795051E-3,7.343777E-3,3.91426E-2,-4.2151067E-2,8.453494E-3,-1.897426E-3],"categories":[],"categories_nodes":[],"categories_segments":[],"categories_sizes":[],"default_left":[0,0,0,0,1,0,0,0,0,0,0,0,0,0,0],"id":19,"left_children":[1,3,5,7,9,11,13,-1,-1,-1,-1,-1,-1,-1,-1],"loss_changes":[5.9993275E1,3.306772E1,3.251925E1,3.3191265E1,2.1304964E1,1.8854443E1,2.881429E1,0E0,0E0,0E0,0E0,0E0,0E0,0E0,0E0],"parents":[2147483647,0,0,1,1,2,2,3,3,4,4,5,5,6,6],"right_children":[2,4,6,8,10,12,14,-1,-1,-1,-1,-1,-1,-1,-1],"split_conditions":[3.09128E3,6.741573E-2,3.3333333E0,1.21301E3,3.4829E2,2.9E1,4E0,-9.302493E-3,1.0441747E-2,-6.795051E-3,7.343777E-3,3.91426E-2,-4.2151067E-2,8.453494E-3,-1.897426E-3],"split_indices":[9,80,76,54,17,36,2,0,0,0,0,0,0,0,0],"split_type":[0,0,0,0,0,0,0,0,0,0,0,0,0,0,0],"sum_hessian":[3.9507852E3,2.1136858E3,1.8370994E3,1.4584218E3,6.5526404E2,3.2227108E1,1.8048722E3,1.3296426E3,1.287792E2,2.2363112E2,4.316329E2,3.767042E0,2.8460068E1,1.2787782E3,5.2609406E2],"tree_param":{"num_deleted":"0","num_feature":"97","num_nodes":"15","size_leaf_vector":"1"}},{"base_weights":[1.26695335E-2,-4.1796684E-2,2.545764E-1,-2.516824E-1,2.3470445E-2,8.9872587E-1,2.0466906E-1,-1.2118331E-2,4.1607553E-3,-3.5728633E-3,3.1702823E-3,3.888995E-2,-3.4137403E-3,1.4581991E-2,-1.3779078E-3],"categories":[],"categories_nodes":[],"categories_segments":[],"categories_sizes":[],"default_left":[0,0,0,0,0,0,0,0,0,0,0,0,0,0,0],"id":20,"left_children":[1,3,5,7,9,11,13,-1,-1,-1,-1,-1,-1,-1,-1],"loss_changes":[5.167158E1,4.3857952E1,2.2986362E1,2.0370869E1,1.7988459E1,7.5205994E0,3.0276531E1,0E0,0E0,0E0,0E0,0E0,0E0,0E0,0E0],"parents":[2147483647,0,0,1,1,2,2,3,3,4,4,5,5,6,6],"right_children":[2,4,6,8,10,12,14,-1,-1,-1,-1,-1,-1,-1,-1],"split_conditions":[1.7923975E3,2.4E1,3.03377E3,5.2793E2,3.4169138E3,1.53489E3,5.7014E2,-1.2118331E-2,4.1607553E-3,-3.5728633E-3,3.1702823E-3,3.888995E-2,-3.4137403E-3,1.4581991E-2,-1.3779078E-3],"split_indices":[83,51,37,92,1,38,38,0,0,0,0,0,0,0,0],"split_type":[0,0,0,0,0,0,0,0,0,0,0,0,0,0,0],"sum_hessian":[3.9197288E3,3.200042E3,7.1968665E2,7.5839374E2,2.4416482E3,5.052291E1,6.691637E2,6.306406E2,1.2775314E2,8.3120044E2,1.6104479E3,4.4009563E1,6.5133486E0,3.7704684E2,2.9211685E2],"tree_param":{"num_deleted":"0","num_feature":"97","num_nodes":"15","size_leaf_vector":"1"}},{"base_weights":[-1.5870024E-2,-1.2846239E-1,1.0758732E-1,-7.1917325E-2,-3.6198518E-1,1.5729994E-1,-2.5554416E-1,-9.799579E-3,-2.474816E-4,-5.1718924E-2,-1.1483716E-2,6.3419095E-3,-3.3099167E-2,2.1921117E-2,-1.3866515E-2],"categories":[],"categories_nodes":[],"categories_segments":[],"categories_sizes":[],"default_left":[0,0,0,0,0,1,0,0,0,0,0,0,0,0,0],"id":21,"left_children":[1,3,5,7,9,11,13,-1,-1,-1,-1,-1,-1,-1,-1],"loss_changes":[5.3663353E1,2.6634926E1,3.3283974E1,2.0299055E1,2.1242737E1,2.214122E1,2.2112537E1,0E0,0E0,0E0,0E0,0E0,0E0,0E0,0E0],"parents":[2147483647,0,0,1,1,2,2,3,3,4,4,5,5,6,6],"right_children":[2,4,6,8,10,12,14,-1,-1,-1,-1,-1,-1,-1,-1],"split_conditions":[5.4E1,5E0,1.1E1,5.7593E2,1.53075E3,3.3183E2,4.5333333E0,-9.799579E-3,-2.474816E-4,-5.1718924E-2,-1.1483716E-2,6.3419095E-3,-3.3099167E-2,2.1921117E-2,-1.3866515E-2],"split_indices":[60,2,2,83,8,18,48,0,0,0,0,0,0,0,0],"split_type":[0,0,0,0,0,0,0,0,0,0,0,0,0,0,0],"sum_hessian":[3.8584785E3,2.0180309E3,1.8404478E3,1.6257048E3,3.9232602E2,1.6193363E3,2.2111148E2,4.1297797E2,1.2127268E3,1.8249823E1,3.740762E2,1.6003282E3,1.9008038E1,2.6373425E1,1.9473805E2],"tree_param":{"num_deleted":"0","num_feature":"97","num_nodes":"15","size_leaf_vector":"1"}},{"base_weights":[1.1748059E-2,7.9041325E-2,-1.8100856E-1,1.3676038E-1,-1.4137225E-1,-8.1433254E-1,-1.1656472E-1,-7.994511E-3,6.063436E-3,-9.790028E-3,4.806931E-3,-3.298183E-2,4.708093E-2,-7.7277906E-3,5.613248E-3],"categories":[],"categories_nodes":[],"categories_segments":[],"categories_sizes":[],"default_left":[0,0,0,0,0,0,0,0,0,0,0,0,0,0,0],"id":22,"left_children":[1,3,5,7,9,11,13,-1,-1,-1,-1,-1,-1,-1,-1],"loss_changes":[5.082674E1,3.6968864E1,4.1290222E1,2.1098064E1,1.9851532E1,1.4957043E1,2.2424702E1,0E0,0E0,0E0,0E0,0E0,0E0,0E0,0E0],"parents":[2147483647,0,0,1,1,2,2,3,3,4,4,5,5,6,6],"right_children":[2,4,6,8,10,12,14,-1,-1,-1,-1,-1,-1,-1,-1],"split_conditions":[4E0,5.8064514E-1,1.01541E3,1.37895E3,2E0,2.1E1,5.39821E3,-7.994511E-3,6.063436E-3,-9.790028E-3,4.806931E-3,-3.298183E-2,4.708093E-2,-7.7277906E-3,5.613248E-3],"split_indices":[2,71,43,35,94,67,9,0,0,0,0,0,0,0,0],"split_type":[0,0,0,0,0,0,0,0,0,0,0,0,0,0,0],"sum_hessian":[3.9162273E3,2.9032717E3,1.01295544E3,2.3010864E3,6.0218536E2,9.247458E1,9.2048083E2,1.5822037E2,2.1428662E3,4.1555667E2,1.8662868E2,8.996836E1,2.506222E0,6.8701685E2,2.3346404E2],"tree_param":{"num_deleted":"0","num_feature":"97","num_nodes":"15","size_leaf_vector":"1"}},{"base_weights":[4.079416E-3,-1.2811832E-1,1.0854635E-1,-1.8022281E-1,1.7501426E-1,2.2658351E-1,5.090662E-2,-1.22193415E-2,-2.0483723E-3,9.679438E-3,-3.9431825E-2,1.2395399E-2,3.1671504E-4,-5.8703005E-2,2.198939E-3],"categories":[],"categories_nodes":[],"categories_segments":[],"categories_sizes":[],"default_left":[0,0,0,1,1,0,0,0,0,0,0,0,0,0,0],"id":23,"left_children":[1,3,5,7,9,11,13,-1,-1,-1,-1,-1,-1,-1,-1],"loss_changes":[5.462374E1,2.7608303E1,1.5019974E1,2.757491E1,2.714353E1,1.6780796E1,1.9756361E1,0E0,0E0,0E0,0E0,0E0,0E0,0E0,0E0],"parents":[2147483647,0,0,1,1,2,2,3,3,4,4,5,5,6,6],"right_children":[2,4,6,8,10,12,14,-1,-1,-1,-1,-1,-1,-1,-1],"split_conditions":[3.0755E3,1.04127E3,1.825E3,2.7116E2,1.05409E3,1.8E3,9.677419E-2,-1.22193415E-2,-2.0483723E-3,9.679438E-3,-3.9431825E-2,1.2395399E-2,3.1671504E-4,-5.8703005E-2,2.198939E-3],"split_indices":[10,72,33,17,27,15,53,0,0,0,0,0,0,0,0],"split_type":[0,0,0,0,0,0,0,0,0,0,0,0,0,0,0],"sum_hessian":[3.9531868E3,1.7448763E3,2.2083103E3,1.4893008E3,2.5557559E2,7.235693E2,1.4847411E3,6.8219965E2,8.0710114E2,2.3986697E2,1.5708621E1,4.862138E2,2.3735545E2,6.423444E0,1.4783177E3],"tree_param":{"num_deleted":"0","num_feature":"97","num_nodes":"15","size_leaf_vector":"1"}},{"base_weights":[1.615989E-2,-2.9942304E-1,5.189894E-2,-2.6568016E-1,-1.4073344E0,-1.44676315E-2,1.7049444E-1,-1.2422017E-2,1.3205711E-2,-6.1417546E-2,1.2533949E-2,8.037767E-4,-1.5032818E-2,9.219343E-4,9.443799E-3],"categories":[],"categories_nodes":[],"categories_segments":[],"categories_sizes":[],"default_left":[0,0,0,0,0,1,0,0,0,0,0,0,0,0,0],"id":24,"left_children":[1,3,5,7,9,11,13,-1,-1,-1,-1,-1,-1,-1,-1],"loss_changes":[4.4461678E1,1.4620731E1,2.7871159E1,1.6546297E1,5.4579124E0,3.1871346E1,1.537347E1,0E0,0E0,0E0,0E0,0E0,0E0,0E0,0E0],"parents":[2147483647,0,0,1,1,2,2,3,3,4,4,5,5,6,6],"right_children":[2,4,6,8,10,12,14,-1,-1,-1,-1,-1,-1,-1,-1],"split_conditions":[2.8985508E-2,5.4E1,4.05302E3,1.10925E3,1.71686E3,1.055676E4,6.6363635E0,-1.2422017E-2,1.3205711E-2,-6.1417546E-2,1.2533949E-2,8.037767E-4,-1.5032818E-2,9.219343E-4,9.443799E-3],"split_indices":[41,74,9,72,72,19,66,0,0,0,0,0,0,0,0],"split_type":[0,0,0,0,0,0,0,0,0,0,0,0,0,0,0],"sum_hessian":[3.9396233E3,4.0000812E2,3.5396152E3,3.8939127E2,1.0616849E1,2.270106E3,1.2695093E3,3.5142294E2,3.796832E1,9.374012E0,1.2428372E0,2.0785027E3,1.9160318E2,4.6134525E2,8.08164E2],"tree_param":{"num_deleted":"0","num_feature":"97","num_nodes":"15","size_leaf_vector":"1"}},{"base_weights":[-1.2852239E-2,-1.7590299E-1,7.1055196E-2,-4.180637E-2,-3.459019E-1,-2.2502446E-1,1.0344944E-1,-3.6594865E-3,2.3593927E-2,-4.655271E-2,-1.1172811E-2,-1.5241801E-2,1.3068741E-2,5.911753E-3,-3.3668114E-3],"categories":[],"categories_nodes":[],"categories_segments":[],"categories_sizes":[],"default_left":[0,0,0,0,0,0,0,0,0,0,0,0,0,0,0],"id":25,"left_children":[1,3,5,7,9,11,13,-1,-1,-1,-1,-1,-1,-1,-1],"loss_changes":[5.271794E1,2.9829731E1,2.4425785E1,2.8004946E1,2.3588615E1,2.6795462E1,2.459365E1,0E0,0E0,0E0,0E0,0E0,0E0,0E0,0E0],"parents":[2147483647,0,0,1,1,2,2,3,3,4,4,5,5,6,6],"right_children":[2,4,6,8,10,12,14,-1,-1,-1,-1,-1,-1,-1,-1],"split_conditions":[3.3793333E3,1.214E2,3.478261E-1,1.09021E3,4.7E1,4.4303E2,6E0,-3.6594865E-3,2.3593927E-2,-4.655271E-2,-1.1172811E-2,-1.5241801E-2,1.3068741E-2,5.911753E-3,-3.3668114E-3],"split_indices":[1,38,53,54,15,92,2,0,0,0,0,0,0,0,0],"split_type":[0,0,0,0,0,0,0,0,0,0,0,0,0,0,0],"sum_hessian":[3.8512788E3,1.3081647E3,2.543114E3,7.3201154E2,5.7615314E2,2.5020729E2,2.2929067E3,6.7633545E2,5.5676067E1,2.6584688E1,5.495685E2,1.8979669E2,6.04106E1,1.7843129E3,5.0859387E2],"tree_param":{"num_deleted":"0","num_feature":"97","num_nodes":"15","size_leaf_vector":"1"}},{"base_weights":[-7.648389E-4,-1.3853145E-1,8.052818E-2,-6.8603065E-3,-2.3442943E-1,9.691436E-3,2.2370054E-1,8.1335276E-4,-4.2825613E-2,-2.1867108E-2,-5.9131295E-3,4.8286757E-3,-3.999546E-3,-1.0708729E-2,1.0436758E-2],"categories":[],"categories_nodes":[],"categories_segments":[],"categories_sizes":[],"default_left":[0,0,1,1,0,0,0,0,0,0,0,0,0,0,0],"id":26,"left_children":[1,3,5,7,9,11,13,-1,-1,-1,-1,-1,-1,-1,-1],"loss_changes":[4.3543312E1,1.821641E1,2.4795507E1,2.001239E1,2.218441E1,2.3001722E1,2.3462662E1,0E0,0E0,0E0,0E0,0E0,0E0,0E0,0E0],"parents":[2147483647,0,0,1,1,2,2,3,3,4,4,5,5,6,6],"right_children":[2,4,6,8,10,12,14,-1,-1,-1,-1,-1,-1,-1,-1],"split_conditions":[2.66102E3,2.1151E2,2E0,2E0,-2.3270334E2,4.1039E2,1.256E2,8.1335276E-4,-4.2825613E-2,-2.1867108E-2,-5.9131295E-3,4.8286757E-3,-3.999546E-3,-1.0708729E-2,1.0436758E-2],"split_indices":[10,9,11,23,7,26,63,0,0,0,0,0,0,0,0],"split_type":[0,0,0,0,0,0,0,0,0,0,0,0,0,0,0],"sum_hessian":[3.885851E3,1.4417919E3,2.4440593E3,6.080384E2,8.337535E2,1.6358074E3,8.082519E2,5.940997E2,1.3938707E1,1.4608495E2,6.876685E2,8.079316E2,8.2787573E2,8.004393E1,7.2820795E2],"tree_param":{"num_deleted":"0","num_feature":"97","num_nodes":"15","size_leaf_vector":"1"}},{"base_weights":[-1.0783378E-3,-1.4454372E-1,6.8995856E-2,-2.0472437E-1,1.8050817E-1,-9.5314525E-2,1.1608769E-1,-9.842252E-3,1.4638428E-4,9.558821E-3,-5.978914E-2,-4.2051617E-2,-2.6101724E-3,4.6203556E-3,-3.5639808E-2],"categories":[],"categories_nodes":[],"categories_segments":[],"categories_sizes":[],"default_left":[0,0,1,0,0,0,0,0,0,0,0,0,0,0,0],"id":27,"left_children":[1,3,5,7,9,11,13,-1,-1,-1,-1,-1,-1,-1,-1],"loss_changes":[3.9543167E1,2.528742E1,2.0458931E1,1.3535542E1,2.7903584E1,1.5292993E1,1.7675194E1,0E0,0E0,0E0,0E0,0E0,0E0,0E0,0E0],"parents":[2147483647,0,0,1,1,2,2,3,3,4,4,5,5,6,6],"right_children":[2,4,6,8,10,12,14,-1,-1,-1,-1,-1,-1,-1,-1],"split_conditions":[3.3241567E3,8.1228E2,2.84867E3,7.54717E-2,3.7E1,1.0122E2,4.8E1,-9.842252E-3,1.4638428E-4,9.558821E-3,-5.978914E-2,-4.2051617E-2,-2.6101724E-3,4.6203556E-3,-3.5639808E-2],"split_indices":[1,54,16,52,93,92,2,0,0,0,0,0,0,0,0],"split_type":[0,0,0,0,0,0,0,0,0,0,0,0,0,0,0],"sum_hessian":[3.9312385E3,1.2897233E3,2.6415151E3,1.0885642E3,2.0115901E2,5.881798E2,2.0533354E3,8.467408E2,2.4182347E2,1.937564E2,7.4026103E0,1.2970869E1,5.75209E2,2.039089E3,1.4246318E1],"tree_param":{"num_deleted":"0","num_feature":"97","num_nodes":"15","size_leaf_vector":"1"}},{"base_weights":[1.6334029E-2,-1.0498684E-1,1.1215835E-1,-1.9890906E-1,1.1127562E-2,1.4270931E-1,-2.3818755E-1,-5.356639E-3,-2.3896832E-2,-1.964797E-3,2.0072958E-2,-4.1839657E-3,6.4551444E-3,-1.156979E-2,5.3244174E-2],"categories":[],"categories_nodes":[],"categories_segments":[],"categories_sizes":[],"default_left":[0,0,0,0,0,0,0,0,0,0,0,0,0,0,0],"id":28,"left_children":[1,3,5,7,9,11,13,-1,-1,-1,-1,-1,-1,-1,-1],"loss_changes":[4.5771477E1,1.895153E1,2.3578535E1,2.3335289E1,2.6260305E1,1.5816872E1,2.181034E1,0E0,0E0,0E0,0E0,0E0,0E0,0E0,0E0],"parents":[2147483647,0,0,1,1,2,2,3,3,4,4,5,5,6,6],"right_children":[2,4,6,8,10,12,14,-1,-1,-1,-1,-1,-1,-1,-1],"split_conditions":[3.08004E3,6E0,1.5E1,1.96071E3,1.05686E3,5.3356E2,1.5E1,-5.356639E-3,-2.3896832E-2,-1.964797E-3,2.0072958E-2,-4.1839657E-3,6.4551444E-3,-1.156979E-2,5.3244174E-2],"split_indices":[10,32,2,45,82,44,48,0,0,0,0,0,0,0,0],"split_type":[0,0,0,0,0,0,0,0,0,0,0,0,0,0,0],"sum_hessian":[3.9350444E3,1.7364453E3,2.198599E3,9.5957825E2,7.7686707E2,2.0228071E3,1.7579198E2,8.5456573E2,1.0501249E2,6.937923E2,8.307476E1,2.16422E2,1.8063851E3,1.6925499E2,6.53699E0],"tree_param":{"num_deleted":"0","num_feature":"97","num_nodes":"15","size_leaf_vector":"1"}},{"base_weights":[-4.1689756E-3,4.268001E-2,-2.0683803E-1,-2.1058723E-2,2.0414929E-1,-3.7118453E-1,6.0002323E-2,1.7787729E-3,-6.639587E-3,9.569046E-3,-9.601586E-3,-3.74261E-2,-9.655103E-3,5.9294566E-3,-3.0460663E-2],"categories":[],"categories_nodes":[],"categories_segments":[],"categories_sizes":[],"default_left":[0,1,0,0,0,0,0,0,0,0,0,0,0,0,0],"id":29,"left_children":[1,3,5,7,9,11,13,-1,-1,-1,-1,-1,-1,-1,-1],"loss_changes":[3.6896626E1,3.248947E1,3.2020233E1,2.4501366E1,2.1845165E1,3.1782589E1,2.4423044E1,0E0,0E0,0E0,0E0,0E0,0E0,0E0,0E0],"parents":[2147483647,0,0,1,1,2,2,3,3,4,4,5,5,6,6],"right_children":[2,4,6,8,10,12,14,-1,-1,-1,-1,-1,-1,-1,-1],"split_conditions":[6E0,2E0,1.4122433E3,4.5054945E-1,5.21835E3,4E0,2.8E1,1.7787729E-3,-6.639587E-3,9.569046E-3,-9.601586E-3,-3.74261E-2,-9.655103E-3,5.9294566E-3,-3.0460663E-2],"split_indices":[2,11,83,81,15,78,2,0,0,0,0,0,0,0,0],"split_type":[0,0,0,0,0,0,0,0,0,0,0,0,0,0,0],"sum_hessian":[3.8838252E3,3.155235E3,7.2858997E2,2.2628452E3,8.9238983E2,4.5065366E2,2.7793634E2,1.5743529E3,6.8849243E2,8.013059E2,9.10839E1,6.646525E1,3.841884E2,2.5045656E2,2.7479788E1],"tree_param":{"num_deleted":"0","num_feature":"97","num_nodes":"15","size_leaf_vector":"1"}},{"base_weights":[-1.0582017E-2,-1.2559186E-1,8.169295E-2,-1.8079351E-1,1.2171642E-1,-5.509379E-1,9.789734E-2,-5.8620335E-3,-2.7299244E-2,2.190026E-2,-5.4725056E-4,1.599051E-2,-3.5997223E-2,3.864465E-3,-4.0268913E-2],"categories":[],"categories_nodes":[],"categories_segments":[],"categories_sizes":[],"default_left":[0,0,0,1,0,0,1,0,0,0,0,0,0,0,0],"id":30,"left_children":[1,3,5,7,9,11,13,-1,-1,-1,-1,-1,-1,-1,-1],"loss_changes":[4.1115253E1,2.3566807E1,2.2091969E1,1.8111698E1,2.0067017E1,2.2349216E1,1.4600149E1,0E0,0E0,0E0,0E0,0E0,0E0,0E0,0E0],"parents":[2147483647,0,0,1,1,2,2,3,3,4,4,5,5,6,6],"right_children":[2,4,6,8,10,12,14,-1,-1,-1,-1,-1,-1,-1,-1],"split_conditions":[3.08156E3,6.5789476E-2,3.3636363E0,9.72959E3,1.29782E3,4.88423E3,4E0,-5.8620335E-3,-2.7299244E-2,2.190026E-2,-5.4725056E-4,1.599051E-2,-3.5997223E-2,3.864465E-3,-4.0268913E-2],"split_indices":[10,41,76,19,43,8,31,0,0,0,0,0,0,0,0],"split_type":[0,0,0,0,0,0,0,0,0,0,0,0,0,0,0],"sum_hessian":[3.8721252E3,1.7235703E3,2.148555E3,1.4092853E3,3.1428506E2,5.283042E1,2.0957244E3,1.3532157E3,5.606961E1,7.0389435E1,2.4389561E2,1.5716013E1,3.7114407E1,2.0862722E3,9.452294E0],"tree_param":{"num_deleted":"0","num_feature":"97","num_nodes":"15","size_leaf_vector":"1"}},{"base_weights":[1.0686696E-2,6.428475E-2,-1.9390915E-1,7.125178E-2,-1.1793447E0,-3.7138835E-1,-1.9710148E-2,-1.5470602E-3,5.5258097E-3,-6.0672287E-2,2.6150685E-2,-1.594247E-2,8.542212E-3,1.4749467E-2,-5.6538763E-3],"categories":[],"categories_nodes":[],"categories_segments":[],"categories_sizes":[],"default_left":[0,0,1,0,0,0,0,0,0,0,0,0,0,0,0],"id":31,"left_children":[1,3,5,7,9,11,13,-1,-1,-1,-1,-1,-1,-1,-1],"loss_changes":[4.264477E1,2.6785892E1,2.4950426E1,2.6664806E1,1.5721666E1,1.3705887E1,2.2491764E1,0E0,0E0,0E0,0E0,0E0,0E0,0E0,0E0],"parents":[2147483647,0,0,1,1,2,2,3,3,4,4,5,5,6,6],"right_children":[2,4,6,8,10,12,14,-1,-1,-1,-1,-1,-1,-1,-1],"split_conditions":[5.555556E-1,4.8E1,1.6699E2,6.4622E2,1.4E3,1.5618367E3,2.5599E2,-1.5470602E-3,5.5258097E-3,-6.0672287E-2,2.6150685E-2,-1.594247E-2,8.542212E-3,1.4749467E-2,-5.6538763E-3],"split_indices":[71,2,15,44,44,83,26,0,0,0,0,0,0,0,0],"split_type":[0,0,0,0,0,0,0,0,0,0,0,0,0,0,0],"sum_hessian":[3.8866E3,3.0803423E3,8.062577E2,3.0641218E3,1.622058E1,3.9879938E2,4.0745834E2,1.2443816E3,1.8197402E3,1.3201491E1,3.0190873E0,3.6470154E2,3.4097828E1,9.776111E1,3.0969724E2],"tree_param":{"num_deleted":"0","num_feature":"97","num_nodes":"15","size_leaf_vector":"1"}},{"base_weights":[1.554346E-2,-3.3953644E-2,2.0945734E-1,-2.870408E-1,9.037317E-3,1.1153106E-1,3.925689E-1,-9.507852E-3,-4.6992898E-2,1.9945716E-3,-7.1863937E-3,5.4601644E-4,1.3782657E-2,1.9818487E-2,-1.4657281E-4],"categories":[],"categories_nodes":[],"categories_segments":[],"categories_sizes":[],"default_left":[0,0,1,1,1,0,0,0,0,0,0,0,0,0,0],"id":32,"left_children":[1,3,5,7,9,11,13,-1,-1,-1,-1,-1,-1,-1,-1],"loss_changes":[3.707681E1,3.3489513E1,1.404113E1,1.35173645E1,2.36725E1,1.2846708E1,1.5124367E1,0E0,0E0,0E0,0E0,0E0,0E0,0E0,0E0],"parents":[2147483647,0,0,1,1,2,2,3,3,4,4,5,5,6,6],"right_children":[2,4,6,8,10,12,14,-1,-1,-1,-1,-1,-1,-1,-1],"split_conditions":[5.28672E3,3.2258064E-2,2E0,4E0,8.39804E3,1.536441E4,4E0,-9.507852E-3,-4.6992898E-2,1.9945716E-3,-7.1863937E-3,5.4601644E-4,1.3782657E-2,1.9818487E-2,-1.4657281E-4],"split_indices":[9,41,11,13,19,8,49,0,0,0,0,0,0,0,0],"split_type":[0,0,0,0,0,0,0,0,0,0,0,0,0,0,0],"sum_hessian":[3.8609587E3,3.0764856E3,7.8447314E2,4.4589612E2,2.6305894E3,5.121865E2,2.722866E2,4.330472E2,1.2848906E1,2.1561514E3,4.7443805E2,3.7335272E2,1.3883383E2,2.0116159E2,7.1125015E1],"tree_param":{"num_deleted":"0","num_feature":"97","num_nodes":"15","size_leaf_vector":"1"}},{"base_weights":[7.5491243E-3,-3.6997415E-2,1.8639836E-1,2.6482658E-2,-2.2973053E-1,1.6576508E-1,9.1199493E-1,1.7856965E-3,-1.7479105E-2,-5.799045E-3,-2.1980273E-2,8.19145E-3,-7.800651E-3,4.8825983E-2,1.629393E-3],"categories":[],"categories_nodes":[],"categories_segments":[],"categories_sizes":[],"default_left":[0,0,0,1,0,0,0,0,0,0,0,0,0,0,0],"id":33,"left_children":[1,3,5,7,9,11,13,-1,-1,-1,-1,-1,-1,-1,-1],"loss_changes":[3.1022047E1,3.8146946E1,1.14748535E1,2.4983458E1,2.052015E1,1.5415247E1,7.2984734E0,0E0,0E0,0E0,0E0,0E0,0E0,0E0,0E0],"parents":[2147483647,0,0,1,1,2,2,3,3,4,4,5,5,6,6],"right_children":[2,4,6,8,10,12,14,-1,-1,-1,-1,-1,-1,-1,-1],"split_conditions":[6.31964E3,4E0,6E0,3.97E3,2.9E1,6.923077E-1,2.2E1,1.7856965E-3,-1.7479105E-2,-5.799045E-3,-2.1980273E-2,8.19145E-3,-7.800651E-3,4.8825983E-2,1.629393E-3],"split_indices":[10,2,65,15,84,42,84,0,0,0,0,0,0,0,0],"split_type":[0,0,0,0,0,0,0,0,0,0,0,0,0,0,0],"sum_hessian":[3.891673E3,3.11627E3,7.7540314E2,2.3448115E3,7.7145856E2,7.551618E2,2.0241333E1,2.2483926E3,9.6419014E1,6.41191E2,1.302676E2,6.6026575E2,9.4896065E1,1.351731E1,6.724023E0],"tree_param":{"num_deleted":"0","num_feature":"97","num_nodes":"15","size_leaf_vector":"1"}},{"base_weights":[-8.196803E-3,-2.4436472E-1,3.6384806E-2,-4.0791765E-1,-3.40453E-2,-3.6979344E-2,1.1975094E-1,-2.1585274E-2,-1.8386288E-3,-4.323237E-2,3.9988046E-4,-1.0985677E-3,-5.398396E-2,-1.3573177E-3,8.178879E-3],"categories":[],"categories_nodes":[],"categories_segments":[],"categories_sizes":[],"default_left":[0,0,0,0,0,0,0,0,0,0,0,0,0,0,0],"id":34,"left_children":[1,3,5,7,9,11,13,-1,-1,-1,-1,-1,-1,-1,-1],"loss_changes":[4.118813E1,2.135329E1,2.0131824E1,2.146737E1,1.3788883E1,1.8472141E1,2.4034874E1,0E0,0E0,0E0,0E0,0E0,0E0,0E0,0E0],"parents":[2147483647,0,0,1,1,2,2,3,3,4,4,5,5,6,6],"right_children":[2,4,6,8,10,12,14,-1,-1,-1,-1,-1,-1,-1,-1],"split_conditions":[6.25E-2,3.42946E3,6.8442E2,3.201E1,-2.2402366E3,1.85741E3,8.5E1,-2.1585274E-2,-1.8386288E-3,-4.323237E-2,3.9988046E-4,-1.0985677E-3,-5.398396E-2,-1.3573177E-3,8.178879E-3],"split_indices":[61,29,72,7,7,7,4,0,0,0,0,0,0,0,0],"split_type":[0,0,0,0,0,0,0,0,0,0,0,0,0,0,0],"sum_hessian":[3.909906E3,6.2017267E2,3.2897334E3,3.483373E2,2.7183536E2,1.7501128E3,1.5396206E3,2.3515541E2,1.1318191E2,9.441383E0,2.6239395E2,1.7419059E3,8.206908E0,6.0061755E2,9.3900305E2],"tree_param":{"num_deleted":"0","num_feature":"97","num_nodes":"15","size_leaf_vector":"1"}},{"base_weights":[-1.3207434E-2,-2.7991138E-2,4.7876075E-1,-4.2785425E-2,4.4998235E-1,5.9369993E-1,-9.533451E-1,-1.1997812E-3,-2.2656778E-2,2.1688893E-2,-1.8853264E-2,-1.6819684E-2,2.882887E-2,3.7724122E-2,-5.9428208E-2],"categories":[],"categories_nodes":[],"categories_segments":[],"categories_sizes":[],"default_left":[1,0,0,1,0,0,0,0,0,0,0,0,0,0,0],"id":35,"left_children":[1,3,5,7,9,11,13,-1,-1,-1,-1,-1,-1,-1,-1],"loss_changes":[2.7936167E1,2.638191E1,1.9014563E1,2.1607979E1,1.4471537E1,2.0020851E1,1.2621817E1,0E0,0E0,0E0,0E0,0E0,0E0,0E0,0E0],"parents":[2147483647,0,0,1,1,2,2,3,3,4,4,5,5,6,6],"right_children":[2,4,6,8,10,12,14,-1,-1,-1,-1,-1,-1,-1,-1],"split_conditions":[2.03056E3,1.7447043E4,1.5E1,9.76022E3,4.983005E3,6.888889E0,-4.8631024E2,-1.1997812E-3,-2.2656778E-2,2.1688893E-2,-1.8853264E-2,-1.6819684E-2,2.882887E-2,3.7724122E-2,-5.9428208E-2],"split_indices":[28,1,87,17,83,86,7,0,0,0,0,0,0,0,0],"split_type":[0,0,0,0,0,0,0,0,0,0,0,0,0,0,0],"sum_hessian":[3.8379512E3,3.7269065E3,1.1104467E2,3.6159036E3,1.1100292E2,1.03338425E2,7.7062507E0,3.550586E3,6.53177E1,9.78537E1,1.3149225E1,1.4980085E1,8.835834E1,1.7541301E0,5.9521203E0],"tree_param":{"num_deleted":"0","num_feature":"97","num_nodes":"15","size_leaf_vector":"1"}},{"base_weights":[2.5599256E-2,9.805983E-2,-1.8964843E-1,-1.205829E-1,1.3355806E-1,-2.3522015E-1,4.1623032E-1,-1.432972E-3,-2.588413E-2,6.804826E-3,-5.9418305E-4,-3.6749456E-2,-7.3501873E-3,2.1810725E-2,-3.0752286E-2],"categories":[],"categories_nodes":[],"categories_segments":[],"categories_sizes":[],"default_left":[0,0,0,0,0,0,1,0,0,0,0,0,0,0,0],"id":36,"left_children":[1,3,5,7,9,11,13,-1,-1,-1,-1,-1,-1,-1,-1],"loss_changes":[6.0894093E1,2.2685461E1,2.7250137E1,1.9238695E1,1.8469349E1,2.5855328E1,1.5031559E1,0E0,0E0,0E0,0E0,0E0,0E0,0E0,0E0],"parents":[2147483647,0,0,1,1,2,2,3,3,4,4,5,5,6,6],"right_children":[2,4,6,8,10,12,14,-1,-1,-1,-1,-1,-1,-1,-1],"split_conditions":[4E0,7E0,1.42129E3,6E0,4.5054945E-1,2E0,5.67528E3,-1.432972E-3,-2.588413E-2,6.804826E-3,-5.9418305E-4,-3.6749456E-2,-7.3501873E-3,2.1810725E-2,-3.0752286E-2],"split_indices":[2,55,54,46,81,39,17,0,0,0,0,0,0,0,0],"split_type":[0,0,0,0,0,0,0,0,0,0,0,0,0,0,0],"sum_hessian":[3.9019475E3,2.919643E3,9.823045E2,4.0746686E2,2.5121763E3,9.141618E2,6.8142685E1,3.5744144E2,5.002544E1,1.8905598E3,6.216164E2,4.266036E1,8.7150146E2,6.0432243E1,7.7104397E0],"tree_param":{"num_deleted":"0","num_feature":"97","num_nodes":"15","size_leaf_vector":"1"}},{"base_weights":[-4.625941E-3,-7.0252076E-2,1.546302E-1,-2.207053E-1,-8.946984E-3,2.641749E-1,-8.8917874E-2,-5.5872444E-3,-1.8951146E-2,-2.9719472E-3,4.6226885E-3,5.7394896E-3,1.9259233E-2,-2.8719973E-2,1.323679E-3],"categories":[],"categories_nodes":[],"categories_segments":[],"categories_sizes":[],"default_left":[1,0,0,0,0,0,0,0,0,0,0,0,0,0,0],"id":37,"left_children":[1,3,5,7,9,11,13,-1,-1,-1,-1,-1,-1,-1,-1],"loss_changes":[4.042097E1,2.5259588E1,3.0135742E1,1.6072636E1,1.8364538E1,2.160019E1,2.982461E1,0E0,0E0,0E0,0E0,0E0,0E0,0E0,0E0],"parents":[2147483647,0,0,1,1,2,2,3,3,4,4,5,5,6,6],"right_children":[2,4,6,8,10,12,14,-1,-1,-1,-1,-1,-1,-1,-1],"split_conditions":[2E0,2.84128E3,5.4307E2,6E0,7.9523016E2,9.729923E2,2.34947E3,-5.5872444E-3,-1.8951146E-2,-2.9719472E-3,4.6226885E-3,5.7394896E-3,1.9259233E-2,-2.8719973E-2,1.323679E-3],"split_indices":[11,35,38,49,5,5,35,0,0,0,0,0,0,0,0],"split_type":[0,0,0,0,0,0,0,0,0,0,0,0,0,0,0],"sum_hessian":[3.8653867E3,2.737782E3,1.1276049E3,7.9183435E2,1.9459476E3,7.777231E2,3.498817E2,6.3705066E2,1.5478372E2,1.2701158E3,6.758318E2,5.430081E2,2.34715E2,5.318591E1,2.966958E2],"tree_param":{"num_deleted":"0","num_feature":"97","num_nodes":"15","size_leaf_vector":"1"}},{"base_weights":[2.7867192E-3,-8.7388605E-2,7.40486E-2,-1.1262675E-1,3.310092E-1,-6.2161963E-2,8.182784E-2,7.830551E-4,-7.44442E-3,-5.2977305E-2,1.49461245E-2,-8.4698154E-4,6.3369153E-3],"categories":[],"categories_nodes":[],"categories_segments":[],"categories_sizes":[],"default_left":[0,0,0,0,0,0,0,0,0,0,0,0,0],"id":38,"left_children":[1,3,5,7,9,-1,11,-1,-1,-1,-1,-1,-1],"loss_changes":[2.4893904E1,1.8095188E1,2.9481663E1,1.8819012E1,1.25939865E1,0E0,1.9906578E1,0E0,0E0,0E0,0E0,0E0,0E0],"parents":[2147483647,0,0,1,1,2,2,3,3,4,4,6,6],"right_children":[2,4,6,8,10,-1,12,-1,-1,-1,-1,-1,-1],"split_conditions":[6.3117E2,1.530728E4,3.9055E2,2.18285E3,8E0,-6.2161963E-2,5.2E1,7.830551E-4,-7.44442E-3,-5.2977305E-2,1.49461245E-2,-8.4698154E-4,6.3369153E-3],"split_indices":[72,8,16,33,84,0,60,0,0,0,0,0,0],"split_type":[0,0,0,0,0,0,0,0,0,0,0,0,0],"sum_hessian":[3.8717446E3,1.7089532E3,2.1627915E3,1.6124282E3,9.6525024E1,8.659236E0,2.1541323E3,6.3713934E2,9.752889E2,2.9765716E0,9.3548454E1,9.8660565E2,1.1675266E3],"tree_param":{"num_deleted":"0","num_feature":"97","num_nodes":"13","size_leaf_vector":"1"}},{"base_weights":[-2.1688795E-2,-1.4594436E-1,5.8883227E-2,-9.280287E-2,-5.133412E-1,-1.2418288E0,6.686607E-2,-2.3953782E-3,-2.474913E-2,-3.086887E-2,-4.643133E-3,-2.8074607E-3,-5.970239E-2,4.2944388E-3,-5.635208E-3],"categories":[],"categories_nodes":[],"categories_segments":[],"categories_sizes":[],"default_left":[1,0,0,0,0,0,0,0,0,0,0,0,0,0,0],"id":39,"left_children":[1,3,5,7,9,11,13,-1,-1,-1,-1,-1,-1,-1,-1],"loss_changes":[3.9055386E1,2.9911854E1,2.4660423E1,2.1812511E1,2.3642494E1,5.977888E0,2.4883224E1,0E0,0E0,0E0,0E0,0E0,0E0,0E0,0E0],"parents":[2147483647,0,0,1,1,2,2,3,3,4,4,5,5,6,6],"right_children":[2,4,6,8,10,12,14,-1,-1,-1,-1,-1,-1,-1,-1],"split_conditions":[3.06149E3,7E0,1.5625E-1,2.6E1,1.5E1,3.0126E2,7E0,-2.3953782E-3,-2.474913E-2,-3.086887E-2,-4.643133E-3,-2.8074607E-3,-5.970239E-2,4.2944388E-3,-5.635208E-3],"split_indices":[29,2,62,46,46,17,2,0,0,0,0,0,0,0,0],"split_type":[0,0,0,0,0,0,0,0,0,0,0,0,0,0,0],"sum_hessian":[3.8990469E3,1.5334447E3,2.365602E3,1.3407719E3,1.9267276E2,1.3484673E1,2.3521174E3,1.2781909E3,6.2580948E1,1.0572573E2,8.694704E1,3.4754648E0,1.0009208E1,1.9251931E3,4.2692432E2],"tree_param":{"num_deleted":"0","num_feature":"97","num_nodes":"15","size_leaf_vector":"1"}},{"base_weights":[-3.377263E-2,-4.899126E-2,5.0595075E-1,-2.4611183E-1,-2.0293819E-2,-7.638737E-1,6.3604856E-1,-1.25529375E-2,8.220244E-3,-1.7166247E-3,8.935683E-3,-5.8202825E-2,2.8617755E-2,3.20514E-2,4.0075756E-3],"categories":[],"categories_nodes":[],"categories_segments":[],"categories_sizes":[],"default_left":[1,0,0,0,0,0,0,0,0,0,0,0,0,0,0],"id":40,"left_children":[1,3,5,7,9,11,13,-1,-1,-1,-1,-1,-1,-1,-1],"loss_changes":[3.200957E1,2.1423246E1,1.8145243E1,2.0503183E1,2.2213512E1,1.3921417E1,1.1471081E1,0E0,0E0,0E0,0E0,0E0,0E0,0E0,0E0],"parents":[2147483647,0,0,1,1,2,2,3,3,4,4,5,5,6,6],"right_children":[2,4,6,8,10,12,14,-1,-1,-1,-1,-1,-1,-1,-1],"split_conditions":[2.08896E3,2.8888888E0,4.597701E-2,9.313169E2,8.695652E-2,6E0,3.204E3,-1.25529375E-2,8.220244E-3,-1.7166247E-3,8.935683E-3,-5.8202825E-2,2.8617755E-2,3.20514E-2,4.0075756E-3],"split_indices":[28,48,52,5,70,67,28,0,0,0,0,0,0,0,0],"split_type":[0,0,0,0,0,0,0,0,0,0,0,0,0,0,0],"sum_hessian":[3.8927874E3,3.786922E3,1.05865295E2,4.802739E2,3.3066482E3,9.383383E0,9.648192E1,4.0221994E2,7.8053955E1,3.0091692E3,2.9747885E2,6.156113E0,3.2272694E0,6.72703E1,2.9211615E1],"tree_param":{"num_deleted":"0","num_feature":"97","num_nodes":"15","size_leaf_vector":"1"}},{"base_weights":[-2.6294827E-2,-2.7381307E-1,5.80511E-3,3.1754246E-1,-3.8110518E-1,1.9227663E-2,-5.866873E-1,-1.8060606E-2,2.2542933E-2,-1.8246319E-3,-2.1097295E-2,1.5422751E-4,1.6806236E-2,3.2875072E-3,-3.5540227E-2],"categories":[],"categories_nodes":[],"categories_segments":[],"categories_sizes":[],"default_left":[0,0,0,0,0,1,0,0,0,0,0,0,0,0,0],"id":41,"left_children":[1,3,5,7,9,11,13,-1,-1,-1,-1,-1,-1,-1,-1],"loss_changes":[3.0820225E1,2.8376167E1,2.732504E1,1.621115E1,2.319902E1,2.1892715E1,1.8968235E1,0E0,0E0,0E0,0E0,0E0,0E0,0E0,0E0],"parents":[2147483647,0,0,1,1,2,2,3,3,4,4,5,5,6,6],"right_children":[2,4,6,8,10,12,14,-1,-1,-1,-1,-1,-1,-1,-1],"split_conditions":[2.5E-1,2.6225E2,2.7E1,3.9E1,2.0587E2,1.077029E4,5.7748E2,-1.8060606E-2,2.2542933E-2,-1.8246319E-3,-2.1097295E-2,1.5422751E-4,1.6806236E-2,3.2875072E-3,-3.5540227E-2],"split_indices":[53,54,2,36,9,35,44,0,0,0,0,0,0,0,0],"split_type":[0,0,0,0,0,0,0,0,0,0,0,0,0,0,0],"sum_hessian":[3.8775417E3,4.442851E2,3.4332566E3,6.792404E1,3.7636105E2,3.3581523E3,7.510417E1,1.7742455E1,5.0181587E1,1.3525827E2,2.411028E2,3.2458147E3,1.1233779E2,2.6742886E1,4.8361286E1],"tree_param":{"num_deleted":"0","num_feature":"97","num_nodes":"15","size_leaf_vector":"1"}},{"base_weights":[-2.0274257E-2,-1.765759E-1,2.5676709E-2,-3.583915E-1,-5.0898734E-2,3.345589E-2,-1.0139924E0,-1.8339109E-2,1.5027073E-4,-2.3674728E-4,-5.8136575E-2,2.352978E-3,-8.398471E-3,1.6773673E-2,-4.896495E-2],"categories":[],"categories_nodes":[],"categories_segments":[],"categories_sizes":[],"default_left":[0,0,0,0,1,0,0,0,0,0,0,0,0,0,0],"id":42,"left_children":[1,3,5,7,9,11,13,-1,-1,-1,-1,-1,-1,-1,-1],"loss_changes":[2.7686035E1,1.9992771E1,2.4132368E1,1.7377674E1,3.4901245E1,2.2779078E1,1.0353422E1,0E0,0E0,0E0,0E0,0E0,0E0,0E0,0E0],"parents":[2147483647,0,0,1,1,2,2,3,3,4,4,5,5,6,6],"right_children":[2,4,6,8,10,12,14,-1,-1,-1,-1,-1,-1,-1,-1],"split_conditions":[2.580645E-1,3.2954547E-1,4.3E1,1.0666566E3,3.53886E3,5.8064514E-1,1.47203E3,-1.8339109E-2,1.5027073E-4,-2.3674728E-4,-5.8136575E-2,2.352978E-3,-8.398471E-3,1.6773673E-2,-4.896495E-2],"split_indices":[42,62,2,73,15,71,27,0,0,0,0,0,0,0,0],"split_type":[0,0,0,0,0,0,0,0,0,0,0,0,0,0,0],"sum_hessian":[3.852956E3,8.747452E2,2.978211E3,3.5675543E2,5.1798975E2,2.957056E3,2.1154999E1,2.6020544E2,9.655E1,5.0412518E2,1.3864585E1,2.6533074E3,3.0374872E2,3.517081E0,1.7637917E1],"tree_param":{"num_deleted":"0","num_feature":"97","num_nodes":"15","size_leaf_vector":"1"}},{"base_weights":[1.3719817E-2,-2.6910457E-1,4.3570362E-2,-3.8567242E-1,1.669887E-1,3.0434808E-2,5.109469E-1,-6.752161E-3,-2.7146384E-2,-9.605394E-3,2.4975795E-2,2.275137E-3,-6.115617E-3,-3.9652932E-2,2.1988079E-2],"categories":[],"categories_nodes":[],"categories_segments":[],"categories_sizes":[],"default_left":[0,0,1,0,0,0,0,0,0,0,0,0,0,0,0],"id":43,"left_children":[1,3,5,7,9,11,13,-1,-1,-1,-1,-1,-1,-1,-1],"loss_changes":[3.293497E1,1.899839E1,2.1646154E1,2.0501614E1,1.7133862E1,2.0489035E1,1.2692116E1,0E0,0E0,0E0,0E0,0E0,0E0,0E0,0E0],"parents":[2147483647,0,0,1,1,2,2,3,3,4,4,5,5,6,6],"right_children":[2,4,6,8,10,12,14,-1,-1,-1,-1,-1,-1,-1,-1],"split_conditions":[2.5333333E0,3.6E1,1.129511E4,4E0,8.8E1,5.8064514E-1,4.1975307E-1,-6.752161E-3,-2.7146384E-2,-9.605394E-3,2.4975795E-2,2.275137E-3,-6.115617E-3,-3.9652932E-2,2.1988079E-2],"split_indices":[48,60,35,59,4,71,53,0,0,0,0,0,0,0,0],"split_type":[0,0,0,0,0,0,0,0,0,0,0,0,0,0,0],"sum_hessian":[3.8985857E3,3.7141638E2,3.5271692E3,2.931736E2,7.824275E1,3.431791E3,9.537834E1,1.8470567E2,1.0846795E2,4.2698746E1,3.5544006E1,2.9654973E3,4.662937E2,3.9791157E0,9.139922E1],"tree_param":{"num_deleted":"0","num_feature":"97","num_nodes":"15","size_leaf_vector":"1"}},{"base_weights":[1.7415207E-2,-4.770029E-2,1.605671E-1,-8.259959E-2,2.8784856E-1,-5.759998E-2,1.7350908E-1,-7.232106E-3,-8.276322E-4,-4.04559E-2,1.4742835E-2,-4.597844E-2,6.8111774E-3],"categories":[],"categories_nodes":[],"categories_segments":[],"categories_sizes":[],"default_left":[0,0,0,0,0,0,0,0,0,0,0,0,0],"id":44,"left_children":[1,3,5,7,9,-1,11,-1,-1,-1,-1,-1,-1],"loss_changes":[3.632793E1,3.1395554E1,2.7192024E1,1.6347528E1,3.7910454E1,0E0,1.6183334E1,0E0,0E0,0E0,0E0,0E0,0E0],"parents":[2147483647,0,0,1,1,2,2,3,3,4,4,6,6],"right_children":[2,4,6,8,10,-1,12,-1,-1,-1,-1,-1,-1],"split_conditions":[8.376857E2,9.7581E2,3.51885E2,3.5E1,-1.08017E3,-5.759998E-2,2.2727273E-2,-7.232106E-3,-8.276322E-4,-4.04559E-2,1.4742835E-2,-4.597844E-2,6.8111774E-3],"split_indices":[5,63,83,51,7,0,80,0,0,0,0,0,0],"split_type":[0,0,0,0,0,0,0,0,0,0,0,0,0],"sum_hessian":[3.8952747E3,2.6778477E3,1.217427E3,2.4262632E3,2.5158443E2,8.267038E0,1.20916E3,8.5115186E2,1.5751113E3,1.766814E1,2.3391629E2,7.121133E0,1.2020388E3],"tree_param":{"num_deleted":"0","num_feature":"97","num_nodes":"13","size_leaf_vector":"1"}},{"base_weights":[3.6050577E-3,4.66015E-2,-1.7501877E-1,-3.9253652E-2,1.1300634E-1,-1.4006247E-1,-1.1170638E0,9.6826546E-4,-1.0816771E-2,1.9914305E-3,9.580068E-3,-7.5831036E-3,1.1154078E-2,-5.014594E-2,-9.795937E-3],"categories":[],"categories_nodes":[],"categories_segments":[],"categories_sizes":[],"default_left":[0,0,0,0,0,0,0,0,0,0,0,0,0,0,0],"id":45,"left_children":[1,3,5,7,9,11,13,-1,-1,-1,-1,-1,-1,-1,-1],"loss_changes":[2.991681E1,1.790388E1,2.4731699E1,2.2461044E1,1.5188049E1,2.0443298E1,4.910187E0,0E0,0E0,0E0,0E0,0E0,0E0,0E0,0E0],"parents":[2147483647,0,0,1,1,2,2,3,3,4,4,5,5,6,6],"right_children":[2,4,6,8,10,12,14,-1,-1,-1,-1,-1,-1,-1,-1],"split_conditions":[6E0,2.42048E3,5.8064514E-1,8.833333E0,1.0142858E1,7.39754E3,1.21446E3,9.6826546E-4,-1.0816771E-2,1.9914305E-3,9.580068E-3,-7.5831036E-3,1.1154078E-2,-5.014594E-2,-9.795937E-3],"split_indices":[2,9,91,66,86,9,72,0,0,0,0,0,0,0,0],"split_type":[0,0,0,0,0,0,0,0,0,0,0,0,0,0,0],"sum_hessian":[3.8931367E3,3.1384407E3,7.5469604E2,1.3689199E3,1.7695208E3,7.288044E2,2.589169E1,1.0873254E3,2.8159457E2,1.2534149E3,5.161059E2,6.372359E2,9.156844E1,1.995437E1,5.9373198E0],"tree_param":{"num_deleted":"0","num_feature":"97","num_nodes":"15","size_leaf_vector":"1"}},{"base_weights":[-1.32124E-2,-1.2229486E-1,6.086754E-2,-4.2733636E-1,-8.6029254E-2,3.2009465E-1,3.53514E-2,-2.6647288E-2,-2.360742E-3,-3.421576E-2,-2.5870628E-3,1.48169715E-2,-3.3098683E-2,4.2097876E-3,-3.734505E-3],"categories":[],"categories_nodes":[],"categories_segments":[],"categories_sizes":[],"default_left":[0,0,0,0,0,0,0,0,0,0,0,0,0,0,0],"id":46,"left_children":[1,3,5,7,9,11,13,-1,-1,-1,-1,-1,-1,-1,-1],"loss_changes":[3.1154083E1,1.721266E1,1.5176528E1,1.7299274E1,1.9181564E1,1.9675232E1,2.2044285E1,0E0,0E0,0E0,0E0,0E0,0E0,0E0,0E0],"parents":[2147483647,0,0,1,1,2,2,3,3,4,4,5,5,6,6],"right_children":[2,4,6,8,10,12,14,-1,-1,-1,-1,-1,-1,-1,-1],"split_conditions":[4.761905E-2,5.0884E2,1.26382E3,9.1E1,-1.55917E3,5.595238E-1,3E0,-2.6647288E-2,-2.360742E-3,-3.421576E-2,-2.5870628E-3,1.48169715E-2,-3.3098683E-2,4.2097876E-3,-3.734505E-3],"split_indices":[70,44,43,36,7,42,58,0,0,0,0,0,0,0,0],"split_type":[0,0,0,0,0,0,0,0,0,0,0,0,0,0,0],"sum_hessian":[3.8532378E3,1.5581936E3,2.2950442E3,1.6441115E2,1.3937823E3,2.0461601E2,2.0904282E3,9.122318E1,7.3187965E1,2.6130043E1,1.3676523E3,1.9288675E2,1.1729254E1,1.3292693E3,7.611589E2],"tree_param":{"num_deleted":"0","num_feature":"97","num_nodes":"15","size_leaf_vector":"1"}},{"base_weights":[1.194004E-2,2.1239277E-2,-7.5175726E-1,-1.2667956E-2,2.0160341E-1,-9.5537645E-1,5.008231E-1,1.1995549E-3,-5.7808943E-3,3.569097E-2,5.9008235E-3,-4.1524988E-2,2.9341934E-2,4.657554E-2,-4.4394486E-2],"categories":[],"categories_nodes":[],"categories_segments":[],"categories_sizes":[],"default_left":[0,0,0,1,0,1,0,0,0,0,0,0,0,0,0],"id":47,"left_children":[1,3,5,7,9,11,13,-1,-1,-1,-1,-1,-1,-1,-1],"loss_changes":[2.7648062E1,2.351708E1,1.2427349E1,2.0713345E1,1.9727623E1,1.2181755E1,1.0641733E1,0E0,0E0,0E0,0E0,0E0,0E0,0E0,0E0],"parents":[2147483647,0,0,1,1,2,2,3,3,4,4,5,5,6,6],"right_children":[2,4,6,8,10,12,14,-1,-1,-1,-1,-1,-1,-1,-1],"split_conditions":[2.8E1,9.04481E3,1.63415E3,7.08094E3,9.54642E3,4E0,4.437367E3,1.1995549E-3,-5.7808943E-3,3.569097E-2,5.9008235E-3,-4.1524988E-2,2.9341934E-2,4.657554E-2,-4.4394486E-2],"split_indices":[87,1,38,19,19,25,1,0,0,0,0,0,0,0,0],"split_type":[0,0,0,0,0,0,0,0,0,0,0,0,0,0,0],"sum_hessian":[3.8895151E3,3.8436882E3,4.582686E1,3.2362148E3,6.0747363E2,3.9625126E1,6.201734E0,2.4619163E3,7.7429846E2,3.16424E1,5.7583124E2,3.6634808E1,2.9903173E0,4.4805207E0,1.7212135E0],"tree_param":{"num_deleted":"0","num_feature":"97","num_nodes":"15","size_leaf_vector":"1"}},{"base_weights":[-1.8205488E-2,1.0149123E-1,-8.253487E-2,1.0657304E-1,-5.7316836E-2,-1.6072625E-1,5.3889155E-2,3.655825E-3,3.910628E-2,-4.115495E-3,-1.6908461E-2,9.188129E-3,-2.454924E-3],"categories":[],"categories_nodes":[],"categories_segments":[],"categories_sizes":[],"default_left":[0,0,0,0,0,0,0,0,0,0,0,0,0],"id":48,"left_children":[1,3,5,7,-1,9,11,-1,-1,-1,-1,-1,-1],"loss_changes":[2.9614206E1,1.1376447E1,2.6692068E1,1.0551664E1,0E0,2.3375145E1,2.108481E1,0E0,0E0,0E0,0E0,0E0,0E0],"parents":[2147483647,0,0,1,1,2,2,3,3,5,5,6,6],"right_children":[2,4,6,8,-1,10,12,-1,-1,-1,-1,-1,-1],"split_conditions":[1.98846E3,1.566807E4,1.51778E3,1.825E1,-5.7316836E-2,9.375E0,4E0,3.655825E-3,3.910628E-2,-4.115495E-3,-1.6908461E-2,9.188129E-3,-2.454924E-3],"split_indices":[33,38,73,66,0,66,0,0,0,0,0,0,0],"split_type":[0,0,0,0,0,0,0,0,0,0,0,0,0],"sum_hessian":[3.8437805E3,1.3434388E3,2.5003416E3,1.3402238E3,3.2150435E0,1.5892869E3,9.110547E2,1.3294673E3,1.075654E1,1.3580529E3,2.31234E2,3.4875452E2,5.623002E2],"tree_param":{"num_deleted":"0","num_feature":"97","num_nodes":"13","size_leaf_vector":"1"}},{"base_weights":[9.886125E-3,7.7817075E-2,-1.8677741E-1,8.634473E-2,-8.4410185E-1,-2.9046932E-1,1.3002464E-1,2.430285E-3,1.7474253E-2,-4.2671293E-2,1.6037144E-2,-1.7395727E-2,-5.7254187E-3,7.938955E-3,-5.0279215E-2],"categories":[],"categories_nodes":[],"categories_segments":[],"categories_sizes":[],"default_left":[0,0,0,0,0,0,0,0,0,0,0,0,0,0,0],"id":49,"left_children":[1,3,5,7,9,11,13,-1,-1,-1,-1,-1,-1,-1,-1],"loss_changes":[5.1378273E1,2.2547125E1,3.2473553E1,2.2848011E1,1.0604544E1,1.789864E1,3.0330265E1,0E0,0E0,0E0,0E0,0E0,0E0,0E0,0E0],"parents":[2147483647,0,0,1,1,2,2,3,3,4,4,5,5,6,6],"right_children":[2,4,6,8,10,12,14,-1,-1,-1,-1,-1,-1,-1,-1],"split_conditions":[4E0,2.3E1,6.36363E3,2.7348804E3,6E0,3.3042352E2,1.1E1,2.430285E-3,1.7474253E-2,-4.2671293E-2,1.6037144E-2,-1.7395727E-2,-5.7254187E-3,7.938955E-3,-5.0279215E-2],"split_indices":[2,49,10,5,22,5,6,0,0,0,0,0,0,0,0],"split_type":[0,0,0,0,0,0,0,0,0,0,0,0,0,0,0],"sum_hessian":[3.843631E3,2.8572932E3,9.863381E2,2.832007E3,2.5286108E1,7.4318146E2,2.4315659E2,2.6852214E3,1.4678569E2,2.0532108E1,4.7539988E0,3.232837E2,4.198978E2,2.3103764E2,1.211893E1],"tree_param":{"num_deleted":"0","num_feature":"97","num_nodes":"15","size_leaf_vector":"1"}},{"base_weights":[-1.6160909E-3,-7.5778656E-2,6.803386E-2,-6.201144E-2,-8.754207E-1,3.4864852E-1,3.4644626E-2,-1.407595E-3,-2.518373E-2,-2.0276397E-3,-5.3911272E-2,1.5321488E-2,-3.4432348E-2,5.4904907E-5,1.1871025E-2],"categories":[],"categories_nodes":[],"categories_segments":[],"categories_sizes":[],"default_left":[0,0,0,0,0,0,0,0,0,0,0,0,0,0,0],"id":50,"left_children":[1,3,5,7,9,11,13,-1,-1,-1,-1,-1,-1,-1,-1],"loss_changes":[1.9921078E1,2.050969E1,1.8622017E1,2.7302795E1,1.4728716E1,1.7259563E1,1.675793E1,0E0,0E0,0E0,0E0,0E0,0E0,0E0,0E0],"parents":[2147483647,0,0,1,1,2,2,3,3,4,4,5,5,6,6],"right_children":[2,4,6,8,10,12,14,-1,-1,-1,-1,-1,-1,-1,-1],"split_conditions":[5.31012E3,5.53805E3,5.82845E3,3E1,2.9E1,4.82296E3,3.142465E3,-1.407595E-3,-2.518373E-2,-2.0276397E-3,-5.3911272E-2,1.5321488E-2,-3.4432348E-2,5.4904907E-5,1.1871025E-2],"split_indices":[8,26,8,64,69,26,73,0,0,0,0,0,0,0,0],"split_type":[0,0,0,0,0,0,0,0,0,0,0,0,0,0,0],"sum_hessian":[3.8544524E3,1.8667314E3,1.987721E3,1.8361996E3,3.0531967E1,2.1034824E2,1.7773728E3,1.7675608E3,6.8638756E1,1.2989687E1,1.754228E1,2.0112012E2,9.228108E0,1.5924462E3,1.849266E2],"tree_param":{"num_deleted":"0","num_feature":"97","num_nodes":"15","size_leaf_vector":"1"}},{"base_weights":[-1.5089332E-2,4.1098777E-2,-1.6956279E-1,2.1978479E-2,4.2637172E-1,-1.266112E-1,-7.2744465E-1,-3.3377064E-3,3.135871E-3,-7.577694E-3,2.2840163E-2,-4.027542E-2,-3.815699E-3,-3.513234E-2,2.8791154E-2],"categories":[],"categories_nodes":[],"categories_segments":[],"categories_sizes":[],"default_left":[0,1,0,0,0,0,0,0,0,0,0,0,0,0,0],"id":51,"left_children":[1,3,5,7,9,11,13,-1,-1,-1,-1,-1,-1,-1,-1],"loss_changes":[3.3347977E1,2.0746302E1,2.4463867E1,1.8651665E1,1.5798544E1,2.1871033E1,2.4387215E1,0E0,0E0,0E0,0E0,0E0,0E0,0E0,0E0],"parents":[2147483647,0,0,1,1,2,2,3,3,4,4,5,5,6,6],"right_children":[2,4,6,8,10,12,14,-1,-1,-1,-1,-1,-1,-1,-1],"split_conditions":[4E0,1.39367E3,5.652174E-1,6.1486E2,2.664E3,1.43152E3,2.139115E3,-3.3377064E-3,3.135871E-3,-7.577694E-3,2.2840163E-2,-4.027542E-2,-3.815699E-3,-3.513234E-2,2.8791154E-2],"split_indices":[2,28,81,44,29,8,73,0,0,0,0,0,0,0,0],"split_type":[0,0,0,0,0,0,0,0,0,0,0,0,0,0,0],"sum_hessian":[3.8401367E3,2.816411E3,1.023726E3,2.6842615E3,1.3214935E2,9.5168756E2,7.203843E1,9.6067773E2,1.7235837E3,3.0212059E1,1.0193729E2,2.2409422E1,9.2927814E2,6.330621E1,8.732217E0],"tree_param":{"num_deleted":"0","num_feature":"97","num_nodes":"15","size_leaf_vector":"1"}},{"base_weights":[-1.5325662E-2,-5.850676E-2,1.7648502E-1,-8.1786513E-1,-5.0433587E-2,-6.1459508E-2,1.8981719E-1,4.083857E-2,-3.8242497E-2,5.9858104E-3,-3.120008E-3,-3.4510486E-3,1.0313356E-2],"categories":[],"categories_nodes":[],"categories_segments":[],"categories_sizes":[],"default_left":[0,0,0,0,0,0,0,0,0,0,0,0,0],"id":52,"left_children":[1,3,5,7,9,-1,11,-1,-1,-1,-1,-1,-1],"loss_changes":[3.1913977E1,1.9239735E1,1.7561045E1,1.43353195E1,2.1923454E1,0E0,1.7339819E1,0E0,0E0,0E0,0E0,0E0,0E0],"parents":[2147483647,0,0,1,1,2,2,3,3,4,4,6,6],"right_children":[2,4,6,8,10,-1,12,-1,-1,-1,-1,-1,-1],"split_conditions":[5.47567E3,6.442E1,2.5E1,3.1538463E0,5.1562E2,-6.1459508E-2,6.206E2,4.083857E-2,-3.8242497E-2,5.9858104E-3,-3.120008E-3,-3.4510486E-3,1.0313356E-2],"split_indices":[9,28,4,66,33,0,44,0,0,0,0,0,0],"split_type":[0,0,0,0,0,0,0,0,0,0,0,0,0],"sum_hessian":[3.8507715E3,3.1437502E3,7.0702124E2,3.2012222E1,3.111738E3,4.2318344E0,7.027894E2,2.7301428E0,2.928208E1,4.23752E2,2.687986E3,1.6558476E2,5.3720465E2],"tree_param":{"num_deleted":"0","num_feature":"97","num_nodes":"13","size_leaf_vector":"1"}},{"base_weights":[-1.3253721E-2,2.7518328E-2,-1.8411386E-1,8.848264E-2,-9.096565E-2,-1.0950544E0,-1.3645306E-1,-3.0137363E-3,5.6119277E-3,-4.9742023E-3,1.1584462E-2,-4.5971807E-2,4.161587E-2,-6.6623855E-3,2.4300704E-2],"categories":[],"categories_nodes":[],"categories_segments":[],"categories_sizes":[],"default_left":[0,0,0,1,0,0,0,0,0,0,0,0,0,0,0],"id":53,"left_children":[1,3,5,7,9,11,13,-1,-1,-1,-1,-1,-1,-1,-1],"loss_changes":[2.7133701E1,2.272383E1,3.243038E1,2.1892878E1,1.8340534E1,1.2834217E1,2.402203E1,0E0,0E0,0E0,0E0,0E0,0E0,0E0,0E0],"parents":[2147483647,0,0,1,1,2,2,3,3,4,4,5,5,6,6],"right_children":[2,4,6,8,10,12,14,-1,-1,-1,-1,-1,-1,-1,-1],"split_conditions":[6E0,3.67717E3,4.5E0,2.23977E3,1.39738E3,1.2903225E-1,3.54582E3,-3.0137363E-3,5.6119277E-3,-4.9742023E-3,1.1584462E-2,-4.5971807E-2,4.161587E-2,-6.6623855E-3,2.4300704E-2],"split_indices":[2,15,76,29,72,80,73,0,0,0,0,0,0,0,0],"split_type":[0,0,0,0,0,0,0,0,0,0,0,0,0,0,0],"sum_hessian":[3.893014E3,3.1436672E3,7.493467E2,2.0758474E3,1.0678198E3,3.6161022E1,7.1318567E2,5.573545E2,1.5184929E3,9.6614557E2,1.0167425E2,3.443725E1,1.7237723E0,6.7752783E2,3.5657806E1],"tree_param":{"num_deleted":"0","num_feature":"97","num_nodes":"15","size_leaf_vector":"1"}},{"base_weights":[2.9725077E-2,-2.8457892E-1,4.6476007E-2,-5.7999074E-1,-1.4535645E-2,2.0797919E-1,1.0507029E-2,-4.375661E-2,-4.0877573E-3,-1.4725076E-2,1.794455E-2,8.265713E-3,-5.5924565E-2,-1.6643482E-3,3.914674E-3],"categories":[],"categories_nodes":[],"categories_segments":[],"categories_sizes":[],"default_left":[0,0,0,0,0,0,0,0,0,0,0,0,0,0,0],"id":54,"left_children":[1,3,5,7,9,11,13,-1,-1,-1,-1,-1,-1,-1,-1],"loss_changes":[2.0523218E1,1.572575E1,2.1487093E1,2.6209177E1,1.9865993E1,1.6399765E1,1.5807095E1,0E0,0E0,0E0,0E0,0E0,0E0,0E0,0E0],"parents":[2147483647,0,0,1,1,2,2,3,3,4,4,5,5,6,6],"right_children":[2,4,6,8,10,12,14,-1,-1,-1,-1,-1,-1,-1,-1],"split_conditions":[1.3333334E-1,-4.1375E0,1.4101E2,1.23797E3,6E0,5.5E1,7.692308E-2,-4.375661E-2,-4.0877573E-3,-1.4725076E-2,1.794455E-2,8.265713E-3,-5.5924565E-2,-1.6643482E-3,3.914674E-3],"split_indices":[53,7,63,37,13,84,80,0,0,0,0,0,0,0,0],"split_type":[0,0,0,0,0,0,0,0,0,0,0,0,0,0,0],"sum_hessian":[3.8944087E3,1.9623352E2,3.698175E3,9.316129E1,1.0307223E2,6.727252E2,3.02545E3,4.04676E1,5.269369E1,5.8441498E1,4.463073E1,6.681467E2,4.57851E0,1.9109824E3,1.1144674E3],"tree_param":{"num_deleted":"0","num_feature":"97","num_nodes":"15","size_leaf_vector":"1"}},{"base_weights":[-1.8383864E-2,-1.62889E-1,3.784443E-2,-3.069019E-1,-6.4699724E-2,6.675928E-2,-2.2971953E-1,-8.974343E-3,-3.9712943E-2,1.3679741E-2,-5.392924E-3,3.9684465E-3,-4.3021524E-3,-4.4914797E-2,-5.659389E-3],"categories":[],"categories_nodes":[],"categories_segments":[],"categories_sizes":[],"default_left":[0,0,0,1,0,0,0,0,0,0,0,0,0,0,0],"id":55,"left_children":[1,3,5,7,9,11,13,-1,-1,-1,-1,-1,-1,-1,-1],"loss_changes":[3.1479261E1,1.5325151E1,2.1594694E1,2.176281E1,2.2424332E1,1.8273443E1,2.0487297E1,0E0,0E0,0E0,0E0,0E0,0E0,0E0,0E0],"parents":[2147483647,0,0,1,1,2,2,3,3,4,4,5,5,6,6],"right_children":[2,4,6,8,10,12,14,-1,-1,-1,-1,-1,-1,-1,-1],"split_conditions":[4.0860215E-1,2E0,1.3E1,2.52737E3,-2.1209E2,3.34125E3,5.6666665E0,-8.974343E-3,-3.9712943E-2,1.3679741E-2,-5.392924E-3,3.9684465E-3,-4.3021524E-3,-4.4914797E-2,-5.659389E-3],"split_indices":[53,77,2,17,38,26,76,0,0,0,0,0,0,0,0],"split_type":[0,0,0,0,0,0,0,0,0,0,0,0,0,0,0],"sum_hessian":[3.872295E3,1.0841688E3,2.788126E3,4.3865E2,6.4551886E2,2.5168948E3,2.7123145E2,4.0481204E2,3.3837967E1,1.0039839E2,5.451205E2,2.066263E3,4.506317E2,1.8940874E1,2.5229056E2],"tree_param":{"num_deleted":"0","num_feature":"97","num_nodes":"15","size_leaf_vector":"1"}},{"base_weights":[1.5000661E-2,-3.303765E-1,2.9061222E-2,-1.6664265E-1,-9.756971E-1,3.9372597E-2,-3.9297634E-1,-3.0077612E-3,-5.582084E-2,-5.2099235E-2,-4.3929797E-3,5.011294E-3,-8.4127154E-4,1.6141875E-2,-2.261922E-2],"categories":[],"categories_nodes":[],"categories_segments":[],"categories_sizes":[],"default_left":[0,0,0,0,0,0,0,0,0,0,0,0,0,0,0],"id":56,"left_children":[1,3,5,7,9,11,13,-1,-1,-1,-1,-1,-1,-1,-1],"loss_changes":[1.8807539E1,1.5845036E1,1.620632E1,1.3845167E1,1.0883656E1,2.142422E1,1.59966E1,0E0,0E0,0E0,0E0,0E0,0E0,0E0,0E0],"parents":[2147483647,0,0,1,1,2,2,3,3,4,4,5,5,6,6],"right_children":[2,4,6,8,10,12,14,-1,-1,-1,-1,-1,-1,-1,-1],"split_conditions":[5.9621E2,1.1714286E1,3.1E1,6E0,5.9E1,9.0849E2,1E0,-3.0077612E-3,-5.582084E-2,-5.2099235E-2,-4.3929797E-3,5.011294E-3,-8.4127154E-4,1.6141875E-2,-2.261922E-2],"split_indices":[43,95,55,46,79,17,6,0,0,0,0,0,0,0,0],"split_type":[0,0,0,0,0,0,0,0,0,0,0,0,0,0,0],"sum_hessian":[3.869673E3,1.5048616E2,3.719187E3,1.21038635E2,2.9447527E1,3.6313777E3,8.7809166E1,1.14705734E2,6.332901E0,1.9295324E1,1.0152203E1,1.4314478E3,2.19993E3,1.787024E1,6.993893E1],"tree_param":{"num_deleted":"0","num_feature":"97","num_nodes":"15","size_leaf_vector":"1"}},{"base_weights":[-9.091252E-3,2.271301E-2,-2.6131102E-1,-1.3727282E0,2.7109183E-2,2.0512676E-1,-3.278279E-1,1.5076562E-2,-6.122962E-2,-9.4696676E-4,4.7696414E-3,-5.171153E-2,1.4378985E-2,-6.2685087E-3,-2.6256794E-2],"categories":[],"categories_nodes":[],"categories_segments":[],"categories_sizes":[],"default_left":[0,0,0,0,0,0,0,0,0,0,0,0,0,0,0],"id":57,"left_children":[1,3,5,7,9,11,13,-1,-1,-1,-1,-1,-1,-1,-1],"loss_changes":[3.0938265E1,2.1052206E1,1.3467943E1,5.866987E0,1.8116085E1,1.6258183E1,2.2644348E1,0E0,0E0,0E0,0E0,0E0,0E0,0E0,0E0],"parents":[2147483647,0,0,1,1,2,2,3,3,4,4,5,5,6,6],"right_children":[2,4,6,8,10,12,14,-1,-1,-1,-1,-1,-1,-1,-1],"split_conditions":[1E1,8E0,2E1,1.69429E3,3E0,1.1E1,4.9583E2,1.5076562E-2,-6.122962E-2,-9.4696676E-4,4.7696414E-3,-5.171153E-2,1.4378985E-2,-6.2685087E-3,-2.6256794E-2],"split_indices":[2,89,79,29,32,40,38,0,0,0,0,0,0,0,0],"split_type":[0,0,0,0,0,0,0,0,0,0,0,0,0,0,0],"sum_hessian":[3.8547979E3,3.423945E3,4.308528E2,9.773182E0,3.4141719E3,5.3507942E1,3.7734485E2,1.2270947E0,8.546087E0,2.2460508E3,1.1681212E3,4.7737374E0,4.8734203E1,2.6619882E2,1.1114603E2],"tree_param":{"num_deleted":"0","num_feature":"97","num_nodes":"15","size_leaf_vector":"1"}},{"base_weights":[1.51070105E-2,3.6280222E-2,-2.8554136E-1,7.851276E-2,-1.11681394E-1,5.5964828E-2,-3.2491463E-1,1.995975E-3,1.3446448E-2,1.0181753E-2,-7.451061E-3,6.3092254E-2,-1.3289698E-2],"categories":[],"categories_nodes":[],"categories_segments":[],"categories_sizes":[],"default_left":[0,0,0,0,0,0,0,0,0,0,0,0,0],"id":58,"left_children":[1,3,5,7,9,-1,11,-1,-1,-1,-1,-1,-1],"loss_changes":[2.5039797E1,2.2967506E1,1.8713354E1,2.0110098E1,2.7829597E1,0E0,1.69697E1,0E0,0E0,0E0,0E0,0E0,0E0],"parents":[2147483647,0,0,1,1,2,2,3,3,4,4,6,6],"right_children":[2,4,6,8,10,-1,12,-1,-1,-1,-1,-1,-1],"split_conditions":[3.3E1,4.8387095E-1,5.5555553E0,1.39402E3,1.3325E3,5.5964828E-2,2E0,1.995975E-3,1.3446448E-2,1.0181753E-2,-7.451061E-3,6.3092254E-2,-1.3289698E-2],"split_indices":[84,81,95,72,1,0,66,0,0,0,0,0,0],"split_type":[0,0,0,0,0,0,0,0,0,0,0,0,0],"sum_hessian":[3.9307522E3,3.6729722E3,2.5778018E2,2.8577715E3,8.1520074E2,4.751497E0,2.5302867E2,2.6271975E3,2.30574E2,1.5177176E2,6.6342896E2,3.1236908E0,2.4990498E2],"tree_param":{"num_deleted":"0","num_feature":"97","num_nodes":"13","size_leaf_vector":"1"}},{"base_weights":[1.2741245E-2,4.1848682E-2,-1.18494116E-1,6.305741E-2,-3.0424774E-1,-7.817699E-2,-1.2586759E0,2.8914206E-3,-1.181749E-2,-3.1786054E-2,-5.0160224E-3,1.0321239E-2,-6.222864E-3,-1.794019E-4,-5.8941238E-2],"categories":[],"categories_nodes":[],"categories_segments":[],"categories_sizes":[],"default_left":[0,0,1,0,0,0,0,0,0,0,0,0,0,0,0],"id":59,"left_children":[1,3,5,7,9,11,13,-1,-1,-1,-1,-1,-1,-1,-1],"loss_changes":[1.4894743E1,2.3442787E1,3.2442196E1,1.669675E1,1.7059614E1,2.167469E1,9.776833E0,0E0,0E0,0E0,0E0,0E0,0E0,0E0,0E0],"parents":[2147483647,0,0,1,1,2,2,3,3,4,4,5,5,6,6],"right_children":[2,4,6,8,10,12,14,-1,-1,-1,-1,-1,-1,-1,-1],"split_conditions":[5.8064514E-1,2.7E1,4E0,7E0,3.3333335E-2,1.97388E3,2.8073E2,2.8914206E-3,-1.181749E-2,-3.1786054E-2,-5.0160224E-3,1.0321239E-2,-6.222864E-3,-1.794019E-4,-5.8941238E-2],"split_indices":[71,46,13,85,70,34,54,0,0,0,0,0,0,0,0],"split_type":[0,0,0,0,0,0,0,0,0,0,0,0,0,0,0],"sum_hessian":[3.8967507E3,3.1899402E3,7.0681055E2,3.0065273E3,1.8341281E2,6.8370575E2,2.310476E1,2.8963506E3,1.1017689E2,4.2316994E1,1.4109583E2,1.3640533E2,5.473004E2,4.952586E0,1.8152174E1],"tree_param":{"num_deleted":"0","num_feature":"97","num_nodes":"15","size_leaf_vector":"1"}},{"base_weights":[1.5054584E-2,-4.4993073E-2,1.3785431E-1,4.4602287E-1,-6.4141564E-2,1.5560701E-1,-6.4387417E-1,-2.6607295E-2,2.1935951E-2,-2.344444E-2,-1.923725E-3,3.5532005E-2,4.9664523E-3,-5.224675E-2,1.3129694E-3],"categories":[],"categories_nodes":[],"categories_segments":[],"categories_sizes":[],"default_left":[0,0,0,0,0,0,1,0,0,0,0,0,0,0,0],"id":60,"left_children":[1,3,5,7,9,11,13,-1,-1,-1,-1,-1,-1,-1,-1],"loss_changes":[2.8385057E1,2.4337992E1,1.7645567E1,1.6539753E1,1.7547169E1,2.1859884E1,1.4623336E1,0E0,0E0,0E0,0E0,0E0,0E0,0E0,0E0],"parents":[2147483647,0,0,1,1,2,2,3,3,4,4,5,5,6,6],"right_children":[2,4,6,8,10,12,14,-1,-1,-1,-1,-1,-1,-1,-1],"split_conditions":[7.9727E2,1.0989011E-2,1.7E1,5.457E1,3.2967035E-2,1.2E1,4.60448E3,-2.6607295E-2,2.1935951E-2,-2.344444E-2,-1.923725E-3,3.5532005E-2,4.9664523E-3,-5.224675E-2,1.3129694E-3],"split_indices":[5,80,67,17,61,79,16,0,0,0,0,0,0,0,0],"split_type":[0,0,0,0,0,0,0,0,0,0,0,0,0,0,0],"sum_hessian":[3.8474097E3,2.5843171E3,1.2630927E3,9.615692E1,2.4881602E3,1.2358323E3,2.726034E1,1.0104375E1,8.605254E1,5.2719666E1,2.4354404E3,3.238834E1,1.203444E3,1.2373053E1,1.4887288E1],"tree_param":{"num_deleted":"0","num_feature":"97","num_nodes":"15","size_leaf_vector":"1"}},{"base_weights":[-1.5674153E-3,-5.617629E-2,8.7070554E-2,-4.3372147E-2,-8.035752E-1,5.8159713E-2,4.8214805E-1,4.9215584E-4,-8.416045E-3,-3.7216842E-2,4.2193666E-2,5.052093E-3,-3.455162E-3,-5.5422004E-2,2.0563502E-2],"categories":[],"categories_nodes":[],"categories_segments":[],"categories_sizes":[],"default_left":[0,1,0,0,1,0,0,0,0,0,0,0,0,0,0],"id":61,"left_children":[1,3,5,7,9,11,13,-1,-1,-1,-1,-1,-1,-1,-1],"loss_changes":[1.8844803E1,2.3020489E1,1.692457E1,2.4485645E1,1.648865E1,1.6199192E1,1.4756163E1,0E0,0E0,0E0,0E0,0E0,0E0,0E0,0E0],"parents":[2147483647,0,0,1,1,2,2,3,3,4,4,5,5,6,6],"right_children":[2,4,6,8,10,12,14,-1,-1,-1,-1,-1,-1,-1,-1],"split_conditions":[8E0,3.8E3,4.848485E-1,4E0,1.389634E4,1.8E1,8.9E1,4.9215584E-4,-8.416045E-3,-3.7216842E-2,4.2193666E-2,5.052093E-3,-3.455162E-3,-5.5422004E-2,2.0563502E-2],"split_indices":[88,27,91,2,35,55,36,0,0,0,0,0,0,0,0],"split_type":[0,0,0,0,0,0,0,0,0,0,0,0,0,0,0],"sum_hessian":[3.8910466E3,2.4079414E3,1.4831052E3,2.3684285E3,3.951285E1,1.3830518E3,1.0005352E2,1.8087809E3,5.596476E2,3.632792E1,3.1849337E0,9.1396216E2,4.6908957E2,2.7343314E0,9.731919E1],"tree_param":{"num_deleted":"0","num_feature":"97","num_nodes":"15","size_leaf_vector":"1"}},{"base_weights":[1.8789545E-3,-4.286568E-2,1.09986395E-1,1.3121463E-2,-2.0937672E-1,1.3483663E-1,-5.9317607E-1,2.0944653E-3,-1.0992471E-2,-6.2064393E-3,-4.3907415E-2,-2.3477681E-2,5.779246E-3,-4.178471E-2,4.73285E-3],"categories":[],"categories_nodes":[],"categories_segments":[],"categories_sizes":[],"default_left":[1,0,0,0,0,0,0,0,0,0,0,0,0,0,0],"id":62,"left_children":[1,3,5,7,9,11,13,-1,-1,-1,-1,-1,-1,-1,-1],"loss_changes":[1.8752016E1,2.5563362E1,1.991072E1,2.729754E1,2.839591E1,1.7162264E1,1.4968063E1,0E0,0E0,0E0,0E0,0E0,0E0,0E0,0E0],"parents":[2147483647,0,0,1,1,2,2,3,3,4,4,5,5,6,6],"right_children":[2,4,6,8,10,12,14,-1,-1,-1,-1,-1,-1,-1,-1],"split_conditions":[2E0,1.67879E3,1.5E1,2.728875E2,5.14263E3,1.06E2,4E0,2.0944653E-3,-1.0992471E-2,-6.2064393E-3,-4.3907415E-2,-2.3477681E-2,5.779246E-3,-4.178471E-2,4.73285E-3],"split_indices":[11,26,67,7,38,15,65,0,0,0,0,0,0,0,0],"split_type":[0,0,0,0,0,0,0,0,0,0,0,0,0,0,0],"sum_hessian":[3.8743948E3,2.7406438E3,1.133751E3,2.0516921E3,6.8895166E2,1.095836E3,3.7914986E1,1.8006785E3,2.5101372E2,6.609861E2,2.7965559E1,2.7579912E1,1.0682561E3,2.1545944E1,1.636904E1],"tree_param":{"num_deleted":"0","num_feature":"97","num_nodes":"15","size_leaf_vector":"1"}},{"base_weights":[1.3127976E-2,8.797463E-2,-1.3220127E-1,-6.646281E-2,1.3085307E-1,-6.1304975E-1,-1.1097451E-1,1.2861491E-2,-5.203317E-3,7.681506E-3,-2.2040935E-5,1.657459E-2,-2.938681E-2,-2.598477E-3,-1.4836533E-2],"categories":[],"categories_nodes":[],"categories_segments":[],"categories_sizes":[],"default_left":[0,0,0,0,0,0,0,0,0,0,0,0,0,0,0],"id":63,"left_children":[1,3,5,7,9,11,13,-1,-1,-1,-1,-1,-1,-1,-1],"loss_changes":[4.254349E1,1.7104027E1,1.3503939E1,1.6987862E1,2.0025898E1,1.0778265E1,1.5066467E1,0E0,0E0,0E0,0E0,0E0,0E0,0E0,0E0],"parents":[2147483647,0,0,1,1,2,2,3,3,4,4,5,5,6,6],"right_children":[2,4,6,8,10,12,14,-1,-1,-1,-1,-1,-1,-1,-1],"split_conditions":[4.0788E2,6.1964E2,1.7775E2,1E0,6.625E0,2.909091E0,9E0,1.2861491E-2,-5.203317E-3,7.681506E-3,-2.2040935E-5,1.657459E-2,-2.938681E-2,-2.598477E-3,-1.4836533E-2],"split_indices":[38,83,33,84,48,48,49,0,0,0,0,0,0,0,0],"split_type":[0,0,0,0,0,0,0,0,0,0,0,0,0,0,0],"sum_hessian":[3.9090059E3,2.5804517E3,1.3285541E3,5.6061926E2,2.0198324E3,5.4983814E1,1.2735703E3,8.408881E1,4.7653046E2,1.2832931E3,7.3653925E2,7.6193404E0,4.736447E1,1.1149417E3,1.5862863E2],"tree_param":{"num_deleted":"0","num_feature":"97","num_nodes":"15","size_leaf_vector":"1"}},{"base_weights":[1.3209368E-3,4.7368622E-1,-9.080913E-3,-6.491052E-1,6.1999047E-1,-2.740903E-1,1.0987703E-2,-5.259843E-2,1.3840719E-2,4.6937484E-2,1.4215834E-2,1.4235948E-2,-1.3375563E-2,5.66086E-3,-9.956292E-4],"categories":[],"categories_nodes":[],"categories_segments":[],"categories_sizes":[],"default_left":[0,0,0,0,0,0,0,0,0,0,0,0,0,0,0],"id":64,"left_children":[1,3,5,7,9,11,13,-1,-1,-1,-1,-1,-1,-1,-1],"loss_changes":[1.915412E1,1.4202673E1,2.0287329E1,8.454525E0,1.0934744E1,1.5124105E1,1.8864628E1,0E0,0E0,0E0,0E0,0E0,0E0,0E0,0E0],"parents":[2147483647,0,0,1,1,2,2,3,3,4,4,5,5,6,6],"right_children":[2,4,6,8,10,12,14,-1,-1,-1,-1,-1,-1,-1,-1],"split_conditions":[3.6665E2,2.3294E2,7.692308E-2,2.1310464E2,6.958E2,1.3E1,5.25E0,-5.259843E-2,1.3840719E-2,4.6937484E-2,1.4215834E-2,1.4235948E-2,-1.3375563E-2,5.66086E-3,-9.956292E-4],"split_indices":[29,35,42,5,43,89,66,0,0,0,0,0,0,0,0],"split_type":[0,0,0,0,0,0,0,0,0,0,0,0,0,0,0],"sum_hessian":[3.8955205E3,8.298078E1,3.8125398E3,9.167613E0,7.381317E1,2.6751077E2,3.545029E3,5.0280313E0,4.139581E0,1.8855917E1,5.4957256E1,3.027714E1,2.3723364E2,7.475672E2,2.7974617E3],"tree_param":{"num_deleted":"0","num_feature":"97","num_nodes":"15","size_leaf_vector":"1"}},{"base_weights":[-5.153735E-3,3.4545604E-2,-1.708212E-1,7.2198436E-2,-1.000882E-1,-8.056158E-1,-1.1744893E-1,1.3571845E-3,9.953402E-3,5.54219E-3,-7.914656E-3,5.698823E-2,-3.3179194E-2,-1.0020317E-2,7.7389606E-4],"categories":[],"categories_nodes":[],"categories_segments":[],"categories_sizes":[],"default_left":[0,0,0,1,0,0,0,0,0,0,0,0,0,0,0],"id":65,"left_children":[1,3,5,7,9,11,13,-1,-1,-1,-1,-1,-1,-1,-1],"loss_changes":[2.562638E1,1.5941458E1,2.5425148E1,1.7125622E1,1.9263134E1,1.2961361E1,1.4589471E1,0E0,0E0,0E0,0E0,0E0,0E0,0E0,0E0],"parents":[2147483647,0,0,1,1,2,2,3,3,4,4,5,5,6,6],"right_children":[2,4,6,8,10,12,14,-1,-1,-1,-1,-1,-1,-1,-1],"split_conditions":[6E0,9.091E2,5.3333335E0,4.90237E3,2.2E1,1.9354838E-1,6.9403E2,1.3571845E-3,9.953402E-3,5.54219E-3,-7.914656E-3,5.698823E-2,-3.3179194E-2,-1.0020317E-2,7.7389606E-4],"split_indices":[2,38,76,35,89,91,44,0,0,0,0,0,0,0,0],"split_type":[0,0,0,0,0,0,0,0,0,0,0,0,0,0,0],"sum_hessian":[3.894282E3,3.1421042E3,7.5217786E2,2.4557852E3,6.8631915E2,5.723922E1,6.949386E2,2.0763042E3,3.7948087E2,2.1342432E2,4.728948E2,1.4165032E0,5.582272E1,3.3101364E2,3.6392496E2],"tree_param":{"num_deleted":"0","num_feature":"97","num_nodes":"15","size_leaf_vector":"1"}},{"base_weights":[1.1408122E-2,2.7162159E-2,-2.7414227E-1,1.2595624E-1,-4.714136E-2,-7.272658E-1,-5.529393E-2,-3.7393834E-2,5.1341914E-3,-3.0976916E-3,1.0689093E-2,9.852214E-3,-3.3248957E-2,8.106111E-3,-2.3797302E-2],"categories":[],"categories_nodes":[],"categories_segments":[],"categories_sizes":[],"default_left":[1,0,0,0,1,0,1,0,0,0,0,0,0,0,0],"id":66,"left_children":[1,3,5,7,9,11,13,-1,-1,-1,-1,-1,-1,-1,-1],"loss_changes":[1.7483944E1,2.7039219E1,2.0110344E1,2.1384079E1,2.5334673E1,1.1084042E1,2.2144438E1,0E0,0E0,0E0,0E0,0E0,0E0,0E0,0E0],"parents":[2147483647,0,0,1,1,2,2,3,3,4,4,5,5,6,6],"right_children":[2,4,6,8,10,12,14,-1,-1,-1,-1,-1,-1,-1,-1],"split_conditions":[3E0,-4.27E0,5.6497E3,6.75E1,7.32344E3,1.2015E2,8.32E2,-3.7393834E-2,5.1341914E-3,-3.0976916E-3,1.0689093E-2,9.852214E-3,-3.3248957E-2,8.106111E-3,-2.3797302E-2],"split_indices":[12,38,16,28,16,63,27,0,0,0,0,0,0,0,0],"split_type":[0,0,0,0,0,0,0,0,0,0,0,0,0,0,0],"sum_hessian":[3.8836729E3,3.6814783E3,2.0219441E2,1.5800231E3,2.1014553E3,6.508968E1,1.3710474E2,1.5582364E1,1.5644408E3,1.8976046E3,2.0385071E2,9.2165785E0,5.5873104E1,9.384197E1,4.326276E1],"tree_param":{"num_deleted":"0","num_feature":"97","num_nodes":"15","size_leaf_vector":"1"}},{"base_weights":[1.077185E-3,-1.303533E-1,5.1572293E-2,-1.1045945E-1,-1.0103213E0,1.5763864E-1,-1.6476631E-2,-4.931539E-3,2.8352361E-2,2.5708634E-2,-5.378727E-2,4.5589074E-2,5.186965E-3,7.476143E-4,-9.370454E-3],"categories":[],"categories_nodes":[],"categories_segments":[],"categories_sizes":[],"default_left":[0,1,0,0,0,0,0,0,0,0,0,0,0,0,0],"id":67,"left_children":[1,3,5,7,9,11,13,-1,-1,-1,-1,-1,-1,-1,-1],"loss_changes":[2.5576504E1,1.8615803E1,2.0098526E1,2.0135174E1,1.8357473E1,2.1155611E1,1.4588689E1,0E0,0E0,0E0,0E0,0E0,0E0,0E0,0E0],"parents":[2147483647,0,0,1,1,2,2,3,3,4,4,5,5,6,6],"right_children":[2,4,6,8,10,12,14,-1,-1,-1,-1,-1,-1,-1,-1],"split_conditions":[2.8218E3,7.44325E3,3.5164836E-1,6.6E1,4.071429E0,1.0065E2,9.4E0,-4.931539E-3,2.8352361E-2,2.5708634E-2,-5.378727E-2,4.5589074E-2,5.186965E-3,7.476143E-4,-9.370454E-3],"split_indices":[35,33,71,40,48,63,48,0,0,0,0,0,0,0,0],"split_type":[0,0,0,0,0,0,0,0,0,0,0,0,0,0,0],"sum_hessian":[3.8517148E3,1.0686227E3,2.783092E3,1.0461019E3,2.252072E1,1.0872101E3,1.695882E3,1.02124176E3,2.4860207E1,4.4556656E0,1.8065054E1,1.730227E1,1.0699078E3,1.4684963E3,2.2738559E2],"tree_param":{"num_deleted":"0","num_feature":"97","num_nodes":"15","size_leaf_vector":"1"}},{"base_weights":[-6.8065263E-3,-1.9870985E-2,5.1539856E-1,-5.336003E-2,1.1444101E-1,-5.1296074E-2,5.906882E-1,-1.7658814E-3,-4.6564896E-2,-2.5347004E-2,5.1134853E-3,5.162168E-2,1.4102791E-2],"categories":[],"categories_nodes":[],"categories_segments":[],"categories_sizes":[],"default_left":[1,0,0,0,0,0,0,0,0,0,0,0,0],"id":68,"left_children":[1,3,5,7,9,-1,11,-1,-1,-1,-1,-1,-1],"loss_changes":[2.6454655E1,1.7019417E1,1.4304623E1,2.1502024E1,1.3813539E1,0E0,1.4943199E1,0E0,0E0,0E0,0E0,0E0,0E0],"parents":[2147483647,0,0,1,1,2,2,3,3,4,4,6,6],"right_children":[2,4,6,8,10,-1,12,-1,-1,-1,-1,-1,-1],"split_conditions":[2.11366E3,6.30454E3,2.0430107E-1,4.1E1,-3.04521E3,-5.1296074E-2,4.857143E0,-1.7658814E-3,-4.6564896E-2,-2.5347004E-2,5.1134853E-3,5.162168E-2,1.4102791E-2],"split_indices":[28,10,71,2,7,0,57,0,0,0,0,0,0],"split_type":[0,0,0,0,0,0,0,0,0,0,0,0,0],"sum_hessian":[3.8749048E3,3.7812732E3,9.3631584E1,3.0271228E3,7.541504E2,2.9190521E0,9.071253E1,3.0131897E3,1.3933067E1,2.0262892E1,7.338875E2,1.7926622E1,7.278591E1],"tree_param":{"num_deleted":"0","num_feature":"97","num_nodes":"13","size_leaf_vector":"1"}},{"base_weights":[-3.6825996E-3,4.2896405E-2,-2.0478377E-1,-1.0930318E0,4.745793E-2,1.0441831E0,-2.3126523E-1,-7.2550387E-3,-6.490302E-2,2.2515138E-3,-1.3301445E-2,-3.738723E-2,5.1862173E-2,-1.7207818E-2,-3.81244E-3],"categories":[],"categories_nodes":[],"categories_segments":[],"categories_sizes":[],"default_left":[0,0,0,0,1,0,0,0,0,0,0,0,0,0,0],"id":69,"left_children":[1,3,5,7,9,11,13,-1,-1,-1,-1,-1,-1,-1,-1],"loss_changes":[3.6296078E1,1.635671E1,2.4346178E1,7.023897E0,1.6499197E1,1.2325216E1,2.1201405E1,0E0,0E0,0E0,0E0,0E0,0E0,0E0,0E0],"parents":[2147483647,0,0,1,1,2,2,3,3,4,4,5,5,6,6],"right_children":[2,4,6,8,10,12,14,-1,-1,-1,-1,-1,-1,-1,-1],"split_conditions":[6E0,1.3186814E-1,2.5371E2,3.75E0,9.23556E3,4.96332E2,6.2E0,-7.2550387E-3,-6.490302E-2,2.2515138E-3,-1.3301445E-2,-3.738723E-2,5.1862173E-2,-1.7207818E-2,-3.81244E-3],"split_indices":[2,71,54,57,17,83,57,0,0,0,0,0,0,0,0],"split_type":[0,0,0,0,0,0,0,0,0,0,0,0,0,0,0],"sum_hessian":[3.8726992E3,3.1450215E3,7.276777E2,1.1621817E1,3.1333997E3,1.4308078E1,7.133696E2,5.4246645E0,6.197152E0,3.0367388E3,9.666106E1,1.8045921E0,1.2503486E1,2.5475139E2,4.5861823E2],"tree_param":{"num_deleted":"0","num_feature":"97","num_nodes":"15","size_leaf_vector":"1"}},{"base_weights":[-1.6572792E-2,-7.877156E-2,7.528078E-2,-2.0535937E-2,-2.500047E-1,1.3156126E-1,-9.9087216E-2,-2.030397E-3,1.5448781E-2,-4.3036778E-2,-7.877194E-3,-1.1671447E-2,6.3494053E-3,-7.103147E-3,1.3548078E-2],"categories":[],"categories_nodes":[],"categories_segments":[],"categories_sizes":[],"default_left":[0,0,0,0,0,0,0,0,0,0,0,0,0,0,0],"id":70,"left_children":[1,3,5,7,9,11,13,-1,-1,-1,-1,-1,-1,-1,-1],"loss_changes":[2.1987036E1,2.2875181E1,1.52627E1,2.5365257E1,2.0060196E1,2.040044E1,1.6173891E1,0E0,0E0,0E0,0E0,0E0,0E0,0E0,0E0],"parents":[2147483647,0,0,1,1,2,2,3,3,4,4,5,5,6,6],"right_children":[2,4,6,8,10,12,14,-1,-1,-1,-1,-1,-1,-1,-1],"split_conditions":[6.57461E3,4.5E-1,8.4303E2,9.7966E2,-1.90053E3,5.1208E2,1.733494E4,-2.030397E-3,1.5448781E-2,-4.3036778E-2,-7.877194E-3,-1.1671447E-2,6.3494053E-3,-7.103147E-3,1.3548078E-2],"split_indices":[35,81,38,63,38,44,8,0,0,0,0,0,0,0,0],"split_type":[0,0,0,0,0,0,0,0,0,0,0,0,0,0,0],"sum_hessian":[3.8462893E3,2.2934514E3,1.5528379E3,1.7122579E3,5.811934E2,1.1741292E3,3.787088E2,1.5891053E3,1.2315256E2,2.25241E1,5.586693E2,9.3855705E1,1.0802734E3,3.1662405E2,6.2084732E1],"tree_param":{"num_deleted":"0","num_feature":"97","num_nodes":"15","size_leaf_vector":"1"}},{"base_weights":[2.2175563E-3,-8.042324E-1,8.2693575E-3,-5.6573812E-2,-5.8302023E-2,-1.0834328E0,1.2768078E-2,-2.8785056E-2,3.5198376E-2,-5.7027765E-2,2.8810665E-2,6.150897E-4,-5.6189414E-2],"categories":[],"categories_nodes":[],"categories_segments":[],"categories_sizes":[],"default_left":[0,0,0,0,0,1,0,0,0,0,0,0,0],"id":71,"left_children":[1,3,5,7,-1,9,11,-1,-1,-1,-1,-1,-1],"loss_changes":[1.8901522E1,1.6322285E1,1.8892017E1,1.1922882E1,0E0,1.4313673E1,2.1850025E1,0E0,0E0,0E0,0E0,0E0,0E0],"parents":[2147483647,0,0,1,1,2,2,3,3,5,5,6,6],"right_children":[2,4,6,8,-1,10,12,-1,-1,-1,-1,-1,-1],"split_conditions":[1.5053764E-1,4.0209E2,-6.12273E3,4E0,-5.8302023E-2,7.93755E3,5.9E1,-2.8785056E-2,3.5198376E-2,-5.7027765E-2,2.8810665E-2,6.150897E-4,-5.6189414E-2],"split_indices":[71,38,7,85,0,35,84,0,0,0,0,0,0],"split_type":[0,0,0,0,0,0,0,0,0,0,0,0,0],"sum_hessian":[3.8700054E3,2.783903E1,3.8421665E3,1.458757E1,1.3251459E1,1.4780899E1,3.8273855E3,8.6402235E0,5.947346E0,1.2052327E1,2.7285712E0,3.8189727E3,8.4128895E0],"tree_param":{"num_deleted":"0","num_feature":"97","num_nodes":"13","size_leaf_vector":"1"}},{"base_weights":[3.8644106E-3,-4.1105296E-2,1.1393122E-1,-1.9250447E-3,-2.1464117E-1,-4.556679E-2,2.1674418E-1,-3.7028687E-3,3.7227182E-3,-9.976412E-3,2.1977756E-2,-1.07009765E-2,5.163614E-3,1.1366109E-2,-1.327117E-3],"categories":[],"categories_nodes":[],"categories_segments":[],"categories_sizes":[],"default_left":[1,0,0,0,1,1,1,0,0,0,0,0,0,0,0],"id":72,"left_children":[1,3,5,7,9,11,13,-1,-1,-1,-1,-1,-1,-1,-1],"loss_changes":[1.9133965E1,1.8658993E1,1.839767E1,2.2257587E1,2.180535E1,1.9648119E1,1.5230488E1,0E0,0E0,0E0,0E0,0E0,0E0,0E0,0E0],"parents":[2147483647,0,0,1,1,2,2,3,3,4,4,5,5,6,6],"right_children":[2,4,6,8,10,12,14,-1,-1,-1,-1,-1,-1,-1,-1],"split_conditions":[2E0,5E0,1.7951E2,6.6598E2,1.308E3,2.56349E3,3E0,-3.7028687E-3,3.7227182E-3,-9.976412E-3,2.1977756E-2,-1.07009765E-2,5.163614E-3,1.1366109E-2,-1.327117E-3],"split_indices":[11,6,92,72,28,16,13,0,0,0,0,0,0,0,0],"split_type":[0,0,0,0,0,0,0,0,0,0,0,0,0,0,0],"sum_hessian":[3.8635256E3,2.743301E3,1.1202247E3,2.2388508E3,5.044503E2,4.392794E2,6.8094525E2,1.1440631E3,1.0947876E3,4.7379086E2,3.0659418E1,1.8973524E2,2.4954416E2,5.041237E2,1.768216E2],"tree_param":{"num_deleted":"0","num_feature":"97","num_nodes":"15","size_leaf_vector":"1"}},{"base_weights":[2.9300736E-2,5.668248E-2,-1.4734744E-1,7.9797015E-2,-1.5629311E-1,5.2015793E-1,-1.9548407E-1,-2.7971117E-2,3.202821E-3,1.6408384E-2,-9.189231E-3,2.6776768E-2,-2.7885802E-2,-1.0597943E-2,3.4072355E-3],"categories":[],"categories_nodes":[],"categories_segments":[],"categories_sizes":[],"default_left":[0,1,0,0,0,0,0,0,0,0,0,0,0,0,0],"id":73,"left_children":[1,3,5,7,9,11,13,-1,-1,-1,-1,-1,-1,-1,-1],"loss_changes":[1.8776E1,1.6553772E1,1.6843498E1,1.567004E1,1.7882763E1,9.449572E0,1.2464869E1,0E0,0E0,0E0,0E0,0E0,0E0,0E0,0E0],"parents":[2147483647,0,0,1,1,2,2,3,3,4,4,5,5,6,6],"right_children":[2,4,6,8,10,12,14,-1,-1,-1,-1,-1,-1,-1,-1],"split_conditions":[4.9E1,8.5E2,8.5E2,5.6076E2,6.0833335E0,1.5E1,6.5591395E-1,-2.7971117E-2,3.202821E-3,1.6408384E-2,-9.189231E-3,2.6776768E-2,-2.7885802E-2,-1.0597943E-2,3.4072355E-3],"split_indices":[69,27,8,37,86,96,62,0,0,0,0,0,0,0,0],"split_type":[0,0,0,0,0,0,0,0,0,0,0,0,0,0,0],"sum_hessian":[3.878907E3,3.358943E3,5.199639E2,3.030661E3,3.2828217E2,3.4310776E1,4.856532E2,2.1537756E1,3.009123E3,4.2679745E1,2.8560245E2,3.0040728E1,4.2700486E0,3.706445E2,1.1500868E2],"tree_param":{"num_deleted":"0","num_feature":"97","num_nodes":"15","size_leaf_vector":"1"}},{"base_weights":[4.9739154E-3,8.632339E-3,-1.0681833E0,1.241005E-2,-1.018465E0,1.00836985E-1,-5.5918816E-2,1.3004347E-4,1.6962381E-2,-5.0058685E-2,2.4638597E-2,4.0018227E-2,-3.7136603E-2],"categories":[],"categories_nodes":[],"categories_segments":[],"categories_sizes":[],"default_left":[0,0,0,0,0,0,0,0,0,0,0,0,0],"id":74,"left_children":[1,3,5,7,9,11,-1,-1,-1,-1,-1,-1,-1],"loss_changes":[1.5238886E1,1.5016557E1,6.833802E0,1.5222599E1,8.65069E0,5.8926034E0,0E0,0E0,0E0,0E0,0E0,0E0,0E0],"parents":[2147483647,0,0,1,1,2,2,3,3,4,4,5,5],"right_children":[2,4,6,8,10,12,-1,-1,-1,-1,-1,-1,-1],"split_conditions":[4.2E1,5.5E1,2.4691358E-2,1.55E1,7.72486E3,1.1E1,-5.5918816E-2,1.3004347E-4,1.6962381E-2,-5.0058685E-2,2.4638597E-2,4.0018227E-2,-3.7136603E-2],"split_indices":[87,84,90,48,8,55,0,0,0,0,0,0,0],"split_type":[0,0,0,0,0,0,0,0,0,0,0,0,0],"sum_hessian":[3.877273E3,3.8650916E3,1.2181397E1,3.851915E3,1.3176624E1,3.4988892E0,8.682508E0,3.7768945E3,7.5020546E1,1.1206758E1,1.9698663E0,1.8672316E0,1.6316575E0],"tree_param":{"num_deleted":"0","num_feature":"97","num_nodes":"13","size_leaf_vector":"1"}},{"base_weights":[2.7795902E-3,1.3995071E-2,-3.3352995E-1,7.247758E-2,-6.617525E-2,-5.920176E-1,1.7257018E-1,4.2522303E-3,-3.5073645E-3,-8.618326E-3,3.417584E-4,-5.423642E-2,-1.0549532E-2,-3.896622E-2,1.3348563E-2],"categories":[],"categories_nodes":[],"categories_segments":[],"categories_sizes":[],"default_left":[0,0,1,0,0,0,0,0,0,0,0,0,0,0,0],"id":75,"left_children":[1,3,5,7,9,11,13,-1,-1,-1,-1,-1,-1,-1,-1],"loss_changes":[1.4604935E1,1.7571667E1,1.6451185E1,1.5065384E1,1.9683317E1,2.171837E1,1.0121119E1,0E0,0E0,0E0,0E0,0E0,0E0,0E0,0E0],"parents":[2147483647,0,0,1,1,2,2,3,3,4,4,5,5,6,6],"right_children":[2,4,6,8,10,12,14,-1,-1,-1,-1,-1,-1,-1,-1],"split_conditions":[3.1E1,3E0,3E0,5.591398E-1,3.63617E3,3.3E1,5.4545455E-2,4.2522303E-3,-3.5073645E-3,-8.618326E-3,3.417584E-4,-5.423642E-2,-1.0549532E-2,-3.896622E-2,1.3348563E-2],"split_indices":[64,13,13,71,34,64,61,0,0,0,0,0,0,0,0],"split_type":[0,0,0,0,0,0,0,0,0,0,0,0,0,0,0],"sum_hessian":[3.8695261E3,3.7455833E3,1.23942795E2,2.1658079E3,1.5797756E3,8.1932526E1,4.2010265E1,1.7326785E3,4.3312936E2,4.941846E2,1.085591E3,2.0587803E1,6.1344723E1,4.943101E0,3.7067165E1],"tree_param":{"num_deleted":"0","num_feature":"97","num_nodes":"15","size_leaf_vector":"1"}},{"base_weights":[-1.5711019E-2,-1.13957925E-2,-1.1378613E0,-5.9430238E-2,9.0520285E-2,4.8462592E-2,-6.2774785E-2,1.925551E-4,-7.2216294E-3,1.578069E-2,1.1735443E-3],"categories":[],"categories_nodes":[],"categories_segments":[],"categories_sizes":[],"default_left":[0,0,0,0,0,0,0,0,0,0,0],"id":76,"left_children":[1,3,5,7,9,-1,-1,-1,-1,-1,-1],"loss_changes":[1.8622252E1,1.8775238E1,2.1873537E1,2.2642584E1,2.4141836E1,0E0,0E0,0E0,0E0,0E0,0E0],"parents":[2147483647,0,0,1,1,2,2,3,3,4,4],"right_children":[2,4,6,8,10,-1,-1,-1,-1,-1,-1],"split_conditions":[4.8E1,8.1364056E2,-2.25042E3,3.12672E3,2E1,4.8462592E-2,-6.2774785E-2,1.925551E-4,-7.2216294E-3,1.578069E-2,1.1735443E-3],"split_indices":[2,5,38,37,79,0,0,0,0,0,0],"split_type":[0,0,0,0,0,0,0,0,0,0,0],"sum_hessian":[3.8466914E3,3.8329648E3,1.3726771E1,2.6054346E3,1.2275302E3,2.263338E0,1.1463433E1,1.7605464E3,8.4488824E2,1.8376894E2,1.0437612E3],"tree_param":{"num_deleted":"0","num_feature":"97","num_nodes":"11","size_leaf_vector":"1"}},{"base_weights":[8.166926E-3,-7.938778E-3,4.44696E-1,1.5816217E-2,-1.8803115E-1,5.509095E-1,-2.8998807E-1,-2.0742868E-3,3.717318E-3,-5.707472E-3,-5.6023344E-2,2.2940971E-2,-3.7717342E-2,-5.58525E-2,2.9515218E-2],"categories":[],"categories_nodes":[],"categories_segments":[],"categories_sizes":[],"default_left":[0,0,0,0,0,0,0,0,0,0,0,0,0,0,0],"id":77,"left_children":[1,3,5,7,9,11,13,-1,-1,-1,-1,-1,-1,-1,-1],"loss_changes":[2.7153452E1,1.5939261E1,1.0885565E1,1.9775352E1,1.9653332E1,1.2871216E1,2.4780287E1,0E0,0E0,0E0,0E0,0E0,0E0,0E0,0E0],"parents":[2147483647,0,0,1,1,2,2,3,3,4,4,5,5,6,6],"right_children":[2,4,6,8,10,12,14,-1,-1,-1,-1,-1,-1,-1,-1],"split_conditions":[4.706972E3,3.97881E3,5.97516E3,3.61461E3,1.7E1,1.9E1,9E0,-2.0742868E-3,3.717318E-3,-5.707472E-3,-5.6023344E-2,2.2940971E-2,-3.7717342E-2,-5.58525E-2,2.9515218E-2],"split_indices":[45,26,38,10,67,58,87,0,0,0,0,0,0,0,0],"split_type":[0,0,0,0,0,0,0,0,0,0,0,0,0,0,0],"sum_hessian":[3.860097E3,3.7236868E3,1.3641031E2,3.2905442E3,4.3314246E2,1.1940256E2,1.7007753E1,1.7774918E3,1.5130525E3,4.23077E2,1.0065441E1,1.1521872E2,4.183842E0,7.8514714E0,9.156282E0],"tree_param":{"num_deleted":"0","num_feature":"97","num_nodes":"15","size_leaf_vector":"1"}}]},"name":"gbtree"},"learner_model_param":{"base_score":"4.9844196E-1","boost_from_average":"1","num_class":"0","num_feature":"97","num_target":"1"},"objective":{"name":"binary:logistic","reg_loss_param":{"scale_pos_weight":"3.03208256"}}},"version":[2,0,3]}